digraph Tree {
node [shape=box, style="filled", color="black", fontname="helvetica"] ;
edge [fontname="helvetica"] ;
0 [label="koi_steff_err1 <= 124.5\ngini = 0.382\nsamples = 6558\nvalue = [4874, 1684]\nclass = CONFIRMED", fillcolor="#eead7d"] ;
1 [label="koi_duration_err1 <= 0.236\ngini = 0.499\nsamples = 2201\nvalue = [1057, 1144]\nclass = NOT CONFIRMED", fillcolor="#f0f8fd"] ;
0 -> 1 [labeldistance=2.5, labelangle=45, headlabel="True"] ;
2 [label="koi_prad <= 14.485\ngini = 0.455\nsamples = 1608\nvalue = [564, 1044]\nclass = NOT CONFIRMED", fillcolor="#a4d2f3"] ;
1 -> 2 ;
3 [label="koi_model_snr <= 13.25\ngini = 0.395\nsamples = 1424\nvalue = [385, 1039]\nclass = NOT CONFIRMED", fillcolor="#82c1ef"] ;
2 -> 3 ;
4 [label="koi_duration <= 1.589\ngini = 0.382\nsamples = 113\nvalue = [84, 29]\nclass = CONFIRMED", fillcolor="#eeac7d"] ;
3 -> 4 ;
5 [label="koi_time0bk <= 131.651\ngini = 0.069\nsamples = 28\nvalue = [27, 1]\nclass = CONFIRMED", fillcolor="#e68640"] ;
4 -> 5 ;
6 [label="koi_slogg <= 4.454\ngini = 0.5\nsamples = 2\nvalue = [1, 1]\nclass = CONFIRMED", fillcolor="#ffffff"] ;
5 -> 6 ;
7 [label="gini = 0.0\nsamples = 1\nvalue = [1, 0]\nclass = CONFIRMED", fillcolor="#e58139"] ;
6 -> 7 ;
8 [label="gini = 0.0\nsamples = 1\nvalue = [0, 1]\nclass = NOT CONFIRMED", fillcolor="#399de5"] ;
6 -> 8 ;
9 [label="gini = 0.0\nsamples = 26\nvalue = [26, 0]\nclass = CONFIRMED", fillcolor="#e58139"] ;
5 -> 9 ;
10 [label="koi_duration_err2 <= -0.198\ngini = 0.442\nsamples = 85\nvalue = [57, 28]\nclass = CONFIRMED", fillcolor="#f2bf9a"] ;
4 -> 10 ;
11 [label="koi_depth <= 430.55\ngini = 0.32\nsamples = 45\nvalue = [36, 9]\nclass = CONFIRMED", fillcolor="#eca06a"] ;
10 -> 11 ;
12 [label="koi_slogg_err1 <= 0.252\ngini = 0.188\nsamples = 38\nvalue = [34, 4]\nclass = CONFIRMED", fillcolor="#e89050"] ;
11 -> 12 ;
13 [label="koi_steff_err1 <= 106.0\ngini = 0.149\nsamples = 37\nvalue = [34, 3]\nclass = CONFIRMED", fillcolor="#e78c4a"] ;
12 -> 13 ;
14 [label="gini = 0.0\nsamples = 28\nvalue = [28, 0]\nclass = CONFIRMED", fillcolor="#e58139"] ;
13 -> 14 ;
15 [label="koi_steff_err2 <= -108.5\ngini = 0.444\nsamples = 9\nvalue = [6, 3]\nclass = CONFIRMED", fillcolor="#f2c09c"] ;
13 -> 15 ;
16 [label="gini = 0.0\nsamples = 5\nvalue = [5, 0]\nclass = CONFIRMED", fillcolor="#e58139"] ;
15 -> 16 ;
17 [label="koi_depth_err1 <= 8.45\ngini = 0.375\nsamples = 4\nvalue = [1, 3]\nclass = NOT CONFIRMED", fillcolor="#7bbeee"] ;
15 -> 17 ;
18 [label="gini = 0.0\nsamples = 3\nvalue = [0, 3]\nclass = NOT CONFIRMED", fillcolor="#399de5"] ;
17 -> 18 ;
19 [label="gini = 0.0\nsamples = 1\nvalue = [1, 0]\nclass = CONFIRMED", fillcolor="#e58139"] ;
17 -> 19 ;
20 [label="gini = 0.0\nsamples = 1\nvalue = [0, 1]\nclass = NOT CONFIRMED", fillcolor="#399de5"] ;
12 -> 20 ;
21 [label="koi_time0bk_err2 <= -0.01\ngini = 0.408\nsamples = 7\nvalue = [2, 5]\nclass = NOT CONFIRMED", fillcolor="#88c4ef"] ;
11 -> 21 ;
22 [label="gini = 0.0\nsamples = 2\nvalue = [2, 0]\nclass = CONFIRMED", fillcolor="#e58139"] ;
21 -> 22 ;
23 [label="gini = 0.0\nsamples = 5\nvalue = [0, 5]\nclass = NOT CONFIRMED", fillcolor="#399de5"] ;
21 -> 23 ;
24 [label="koi_impact_err2 <= -0.593\ngini = 0.499\nsamples = 40\nvalue = [21, 19]\nclass = CONFIRMED", fillcolor="#fdf3ec"] ;
10 -> 24 ;
25 [label="gini = 0.0\nsamples = 7\nvalue = [7, 0]\nclass = CONFIRMED", fillcolor="#e58139"] ;
24 -> 25 ;
26 [label="koi_impact_err2 <= -0.123\ngini = 0.489\nsamples = 33\nvalue = [14, 19]\nclass = NOT CONFIRMED", fillcolor="#cbe5f8"] ;
24 -> 26 ;
27 [label="koi_model_snr <= 11.95\ngini = 0.403\nsamples = 25\nvalue = [7, 18]\nclass = NOT CONFIRMED", fillcolor="#86c3ef"] ;
26 -> 27 ;
28 [label="gini = 0.0\nsamples = 10\nvalue = [0, 10]\nclass = NOT CONFIRMED", fillcolor="#399de5"] ;
27 -> 28 ;
29 [label="koi_duration_err1 <= 0.187\ngini = 0.498\nsamples = 15\nvalue = [7, 8]\nclass = NOT CONFIRMED", fillcolor="#e6f3fc"] ;
27 -> 29 ;
30 [label="koi_period_err2 <= -0.0\ngini = 0.42\nsamples = 10\nvalue = [7, 3]\nclass = CONFIRMED", fillcolor="#f0b78e"] ;
29 -> 30 ;
31 [label="gini = 0.0\nsamples = 6\nvalue = [6, 0]\nclass = CONFIRMED", fillcolor="#e58139"] ;
30 -> 31 ;
32 [label="ra <= 293.037\ngini = 0.375\nsamples = 4\nvalue = [1, 3]\nclass = NOT CONFIRMED", fillcolor="#7bbeee"] ;
30 -> 32 ;
33 [label="gini = 0.0\nsamples = 1\nvalue = [1, 0]\nclass = CONFIRMED", fillcolor="#e58139"] ;
32 -> 33 ;
34 [label="gini = 0.0\nsamples = 3\nvalue = [0, 3]\nclass = NOT CONFIRMED", fillcolor="#399de5"] ;
32 -> 34 ;
35 [label="gini = 0.0\nsamples = 5\nvalue = [0, 5]\nclass = NOT CONFIRMED", fillcolor="#399de5"] ;
29 -> 35 ;
36 [label="koi_model_snr <= 12.8\ngini = 0.219\nsamples = 8\nvalue = [7, 1]\nclass = CONFIRMED", fillcolor="#e99355"] ;
26 -> 36 ;
37 [label="gini = 0.0\nsamples = 7\nvalue = [7, 0]\nclass = CONFIRMED", fillcolor="#e58139"] ;
36 -> 37 ;
38 [label="gini = 0.0\nsamples = 1\nvalue = [0, 1]\nclass = NOT CONFIRMED", fillcolor="#399de5"] ;
36 -> 38 ;
39 [label="koi_insol <= 3994.215\ngini = 0.354\nsamples = 1311\nvalue = [301, 1010]\nclass = NOT CONFIRMED", fillcolor="#74baed"] ;
3 -> 39 ;
40 [label="koi_impact <= 0.919\ngini = 0.336\nsamples = 1276\nvalue = [273, 1003]\nclass = NOT CONFIRMED", fillcolor="#6fb8ec"] ;
39 -> 40 ;
41 [label="koi_prad <= 0.685\ngini = 0.308\nsamples = 1182\nvalue = [225, 957]\nclass = NOT CONFIRMED", fillcolor="#68b4eb"] ;
40 -> 41 ;
42 [label="ra <= 283.202\ngini = 0.32\nsamples = 20\nvalue = [16, 4]\nclass = CONFIRMED", fillcolor="#eca06a"] ;
41 -> 42 ;
43 [label="gini = 0.0\nsamples = 2\nvalue = [0, 2]\nclass = NOT CONFIRMED", fillcolor="#399de5"] ;
42 -> 43 ;
44 [label="koi_duration_err1 <= 0.059\ngini = 0.198\nsamples = 18\nvalue = [16, 2]\nclass = CONFIRMED", fillcolor="#e89152"] ;
42 -> 44 ;
45 [label="koi_prad_err2 <= -0.03\ngini = 0.444\nsamples = 3\nvalue = [1, 2]\nclass = NOT CONFIRMED", fillcolor="#9ccef2"] ;
44 -> 45 ;
46 [label="gini = 0.0\nsamples = 2\nvalue = [0, 2]\nclass = NOT CONFIRMED", fillcolor="#399de5"] ;
45 -> 46 ;
47 [label="gini = 0.0\nsamples = 1\nvalue = [1, 0]\nclass = CONFIRMED", fillcolor="#e58139"] ;
45 -> 47 ;
48 [label="gini = 0.0\nsamples = 15\nvalue = [15, 0]\nclass = CONFIRMED", fillcolor="#e58139"] ;
44 -> 48 ;
49 [label="koi_duration <= 1.081\ngini = 0.295\nsamples = 1162\nvalue = [209, 953]\nclass = NOT CONFIRMED", fillcolor="#64b2eb"] ;
41 -> 49 ;
50 [label="koi_depth <= 1056.45\ngini = 0.454\nsamples = 23\nvalue = [15, 8]\nclass = CONFIRMED", fillcolor="#f3c4a3"] ;
49 -> 50 ;
51 [label="koi_steff_err2 <= -115.0\ngini = 0.278\nsamples = 18\nvalue = [15, 3]\nclass = CONFIRMED", fillcolor="#ea9a61"] ;
50 -> 51 ;
52 [label="gini = 0.0\nsamples = 2\nvalue = [0, 2]\nclass = NOT CONFIRMED", fillcolor="#399de5"] ;
51 -> 52 ;
53 [label="koi_duration_err1 <= 0.027\ngini = 0.117\nsamples = 16\nvalue = [15, 1]\nclass = CONFIRMED", fillcolor="#e78946"] ;
51 -> 53 ;
54 [label="gini = 0.0\nsamples = 1\nvalue = [0, 1]\nclass = NOT CONFIRMED", fillcolor="#399de5"] ;
53 -> 54 ;
55 [label="gini = 0.0\nsamples = 15\nvalue = [15, 0]\nclass = CONFIRMED", fillcolor="#e58139"] ;
53 -> 55 ;
56 [label="gini = 0.0\nsamples = 5\nvalue = [0, 5]\nclass = NOT CONFIRMED", fillcolor="#399de5"] ;
50 -> 56 ;
57 [label="koi_duration_err1 <= 0.078\ngini = 0.283\nsamples = 1139\nvalue = [194, 945]\nclass = NOT CONFIRMED", fillcolor="#62b1ea"] ;
49 -> 57 ;
58 [label="koi_depth <= 19421.0\ngini = 0.181\nsamples = 558\nvalue = [56, 502]\nclass = NOT CONFIRMED", fillcolor="#4fa8e8"] ;
57 -> 58 ;
59 [label="koi_time0bk <= 219.397\ngini = 0.16\nsamples = 546\nvalue = [48, 498]\nclass = NOT CONFIRMED", fillcolor="#4ca6e8"] ;
58 -> 59 ;
60 [label="koi_impact_err1 <= 0.463\ngini = 0.138\nsamples = 525\nvalue = [39, 486]\nclass = NOT CONFIRMED", fillcolor="#49a5e7"] ;
59 -> 60 ;
61 [label="koi_slogg <= 4.019\ngini = 0.132\nsamples = 522\nvalue = [37, 485]\nclass = NOT CONFIRMED", fillcolor="#48a4e7"] ;
60 -> 61 ;
62 [label="koi_srad <= 1.794\ngini = 0.444\nsamples = 15\nvalue = [5, 10]\nclass = NOT CONFIRMED", fillcolor="#9ccef2"] ;
61 -> 62 ;
63 [label="gini = 0.0\nsamples = 3\nvalue = [3, 0]\nclass = CONFIRMED", fillcolor="#e58139"] ;
62 -> 63 ;
64 [label="koi_insol_err2 <= -7.82\ngini = 0.278\nsamples = 12\nvalue = [2, 10]\nclass = NOT CONFIRMED", fillcolor="#61b1ea"] ;
62 -> 64 ;
65 [label="koi_teq <= 1807.0\ngini = 0.165\nsamples = 11\nvalue = [1, 10]\nclass = NOT CONFIRMED", fillcolor="#4da7e8"] ;
64 -> 65 ;
66 [label="gini = 0.0\nsamples = 10\nvalue = [0, 10]\nclass = NOT CONFIRMED", fillcolor="#399de5"] ;
65 -> 66 ;
67 [label="gini = 0.0\nsamples = 1\nvalue = [1, 0]\nclass = CONFIRMED", fillcolor="#e58139"] ;
65 -> 67 ;
68 [label="gini = 0.0\nsamples = 1\nvalue = [1, 0]\nclass = CONFIRMED", fillcolor="#e58139"] ;
64 -> 68 ;
69 [label="koi_model_snr <= 19.0\ngini = 0.118\nsamples = 507\nvalue = [32, 475]\nclass = NOT CONFIRMED", fillcolor="#46a4e7"] ;
61 -> 69 ;
70 [label="gini = 0.0\nsamples = 1\nvalue = [1, 0]\nclass = CONFIRMED", fillcolor="#e58139"] ;
69 -> 70 ;
71 [label="dec <= 37.049\ngini = 0.115\nsamples = 506\nvalue = [31, 475]\nclass = NOT CONFIRMED", fillcolor="#46a3e7"] ;
69 -> 71 ;
72 [label="gini = 0.0\nsamples = 1\nvalue = [1, 0]\nclass = CONFIRMED", fillcolor="#e58139"] ;
71 -> 72 ;
73 [label="koi_period_err1 <= 0.0\ngini = 0.112\nsamples = 505\nvalue = [30, 475]\nclass = NOT CONFIRMED", fillcolor="#46a3e7"] ;
71 -> 73 ;
74 [label="koi_slogg_err2 <= -0.104\ngini = 0.106\nsamples = 501\nvalue = [28, 473]\nclass = NOT CONFIRMED", fillcolor="#45a3e7"] ;
73 -> 74 ;
75 [label="ra <= 283.091\ngini = 0.203\nsamples = 148\nvalue = [17, 131]\nclass = NOT CONFIRMED", fillcolor="#53aae8"] ;
74 -> 75 ;
76 [label="koi_duration_err2 <= -0.06\ngini = 0.375\nsamples = 4\nvalue = [3, 1]\nclass = CONFIRMED", fillcolor="#eeab7b"] ;
75 -> 76 ;
77 [label="gini = 0.0\nsamples = 1\nvalue = [0, 1]\nclass = NOT CONFIRMED", fillcolor="#399de5"] ;
76 -> 77 ;
78 [label="gini = 0.0\nsamples = 3\nvalue = [3, 0]\nclass = CONFIRMED", fillcolor="#e58139"] ;
76 -> 78 ;
79 [label="koi_duration <= 1.391\ngini = 0.176\nsamples = 144\nvalue = [14, 130]\nclass = NOT CONFIRMED", fillcolor="#4ea8e8"] ;
75 -> 79 ;
80 [label="koi_prad_err2 <= -0.09\ngini = 0.444\nsamples = 3\nvalue = [2, 1]\nclass = CONFIRMED", fillcolor="#f2c09c"] ;
79 -> 80 ;
81 [label="gini = 0.0\nsamples = 2\nvalue = [2, 0]\nclass = CONFIRMED", fillcolor="#e58139"] ;
80 -> 81 ;
82 [label="gini = 0.0\nsamples = 1\nvalue = [0, 1]\nclass = NOT CONFIRMED", fillcolor="#399de5"] ;
80 -> 82 ;
83 [label="koi_duration_err2 <= -0.013\ngini = 0.156\nsamples = 141\nvalue = [12, 129]\nclass = NOT CONFIRMED", fillcolor="#4ba6e7"] ;
79 -> 83 ;
84 [label="koi_slogg_err2 <= -0.133\ngini = 0.116\nsamples = 129\nvalue = [8, 121]\nclass = NOT CONFIRMED", fillcolor="#46a3e7"] ;
83 -> 84 ;
85 [label="gini = 0.0\nsamples = 1\nvalue = [1, 0]\nclass = CONFIRMED", fillcolor="#e58139"] ;
84 -> 85 ;
86 [label="koi_steff_err2 <= -71.0\ngini = 0.103\nsamples = 128\nvalue = [7, 121]\nclass = NOT CONFIRMED", fillcolor="#44a3e7"] ;
84 -> 86 ;
87 [label="dec <= 38.607\ngini = 0.091\nsamples = 126\nvalue = [6, 120]\nclass = NOT CONFIRMED", fillcolor="#43a2e6"] ;
86 -> 87 ;
88 [label="koi_depth_err1 <= 13.25\ngini = 0.408\nsamples = 7\nvalue = [2, 5]\nclass = NOT CONFIRMED", fillcolor="#88c4ef"] ;
87 -> 88 ;
89 [label="gini = 0.0\nsamples = 5\nvalue = [0, 5]\nclass = NOT CONFIRMED", fillcolor="#399de5"] ;
88 -> 89 ;
90 [label="gini = 0.0\nsamples = 2\nvalue = [2, 0]\nclass = CONFIRMED", fillcolor="#e58139"] ;
88 -> 90 ;
91 [label="koi_depth <= 81.7\ngini = 0.065\nsamples = 119\nvalue = [4, 115]\nclass = NOT CONFIRMED", fillcolor="#40a0e6"] ;
87 -> 91 ;
92 [label="koi_time0bk <= 132.507\ngini = 0.444\nsamples = 3\nvalue = [1, 2]\nclass = NOT CONFIRMED", fillcolor="#9ccef2"] ;
91 -> 92 ;
93 [label="gini = 0.0\nsamples = 1\nvalue = [1, 0]\nclass = CONFIRMED", fillcolor="#e58139"] ;
92 -> 93 ;
94 [label="gini = 0.0\nsamples = 2\nvalue = [0, 2]\nclass = NOT CONFIRMED", fillcolor="#399de5"] ;
92 -> 94 ;
95 [label="ra <= 287.874\ngini = 0.05\nsamples = 116\nvalue = [3, 113]\nclass = NOT CONFIRMED", fillcolor="#3ea0e6"] ;
91 -> 95 ;
96 [label="ra <= 287.821\ngini = 0.204\nsamples = 26\nvalue = [3, 23]\nclass = NOT CONFIRMED", fillcolor="#53aae8"] ;
95 -> 96 ;
97 [label="koi_time0bk <= 187.973\ngini = 0.147\nsamples = 25\nvalue = [2, 23]\nclass = NOT CONFIRMED", fillcolor="#4aa6e7"] ;
96 -> 97 ;
98 [label="koi_kepmag <= 11.742\ngini = 0.08\nsamples = 24\nvalue = [1, 23]\nclass = NOT CONFIRMED", fillcolor="#42a1e6"] ;
97 -> 98 ;
99 [label="gini = 0.0\nsamples = 1\nvalue = [1, 0]\nclass = CONFIRMED", fillcolor="#e58139"] ;
98 -> 99 ;
100 [label="gini = 0.0\nsamples = 23\nvalue = [0, 23]\nclass = NOT CONFIRMED", fillcolor="#399de5"] ;
98 -> 100 ;
101 [label="gini = 0.0\nsamples = 1\nvalue = [1, 0]\nclass = CONFIRMED", fillcolor="#e58139"] ;
97 -> 101 ;
102 [label="gini = 0.0\nsamples = 1\nvalue = [1, 0]\nclass = CONFIRMED", fillcolor="#e58139"] ;
96 -> 102 ;
103 [label="gini = 0.0\nsamples = 90\nvalue = [0, 90]\nclass = NOT CONFIRMED", fillcolor="#399de5"] ;
95 -> 103 ;
104 [label="koi_prad <= 2.22\ngini = 0.5\nsamples = 2\nvalue = [1, 1]\nclass = CONFIRMED", fillcolor="#ffffff"] ;
86 -> 104 ;
105 [label="gini = 0.0\nsamples = 1\nvalue = [0, 1]\nclass = NOT CONFIRMED", fillcolor="#399de5"] ;
104 -> 105 ;
106 [label="gini = 0.0\nsamples = 1\nvalue = [1, 0]\nclass = CONFIRMED", fillcolor="#e58139"] ;
104 -> 106 ;
107 [label="koi_model_snr <= 940.45\ngini = 0.444\nsamples = 12\nvalue = [4, 8]\nclass = NOT CONFIRMED", fillcolor="#9ccef2"] ;
83 -> 107 ;
108 [label="koi_slogg <= 4.337\ngini = 0.444\nsamples = 6\nvalue = [4, 2]\nclass = CONFIRMED", fillcolor="#f2c09c"] ;
107 -> 108 ;
109 [label="gini = 0.0\nsamples = 2\nvalue = [0, 2]\nclass = NOT CONFIRMED", fillcolor="#399de5"] ;
108 -> 109 ;
110 [label="gini = 0.0\nsamples = 4\nvalue = [4, 0]\nclass = CONFIRMED", fillcolor="#e58139"] ;
108 -> 110 ;
111 [label="gini = 0.0\nsamples = 6\nvalue = [0, 6]\nclass = NOT CONFIRMED", fillcolor="#399de5"] ;
107 -> 111 ;
112 [label="koi_prad_err1 <= 1.155\ngini = 0.06\nsamples = 353\nvalue = [11, 342]\nclass = NOT CONFIRMED", fillcolor="#3fa0e6"] ;
74 -> 112 ;
113 [label="koi_impact_err2 <= -0.65\ngini = 0.05\nsamples = 348\nvalue = [9, 339]\nclass = NOT CONFIRMED", fillcolor="#3ea0e6"] ;
112 -> 113 ;
114 [label="koi_slogg_err1 <= 0.034\ngini = 0.444\nsamples = 6\nvalue = [2, 4]\nclass = NOT CONFIRMED", fillcolor="#9ccef2"] ;
113 -> 114 ;
115 [label="gini = 0.0\nsamples = 2\nvalue = [2, 0]\nclass = CONFIRMED", fillcolor="#e58139"] ;
114 -> 115 ;
116 [label="gini = 0.0\nsamples = 4\nvalue = [0, 4]\nclass = NOT CONFIRMED", fillcolor="#399de5"] ;
114 -> 116 ;
117 [label="koi_duration <= 1.267\ngini = 0.04\nsamples = 342\nvalue = [7, 335]\nclass = NOT CONFIRMED", fillcolor="#3d9fe6"] ;
113 -> 117 ;
118 [label="koi_prad_err1 <= 0.205\ngini = 0.245\nsamples = 14\nvalue = [2, 12]\nclass = NOT CONFIRMED", fillcolor="#5aade9"] ;
117 -> 118 ;
119 [label="koi_steff_err2 <= -78.5\ngini = 0.142\nsamples = 13\nvalue = [1, 12]\nclass = NOT CONFIRMED", fillcolor="#49a5e7"] ;
118 -> 119 ;
120 [label="gini = 0.0\nsamples = 12\nvalue = [0, 12]\nclass = NOT CONFIRMED", fillcolor="#399de5"] ;
119 -> 120 ;
121 [label="gini = 0.0\nsamples = 1\nvalue = [1, 0]\nclass = CONFIRMED", fillcolor="#e58139"] ;
119 -> 121 ;
122 [label="gini = 0.0\nsamples = 1\nvalue = [1, 0]\nclass = CONFIRMED", fillcolor="#e58139"] ;
118 -> 122 ;
123 [label="koi_impact <= 0.002\ngini = 0.03\nsamples = 328\nvalue = [5, 323]\nclass = NOT CONFIRMED", fillcolor="#3c9fe5"] ;
117 -> 123 ;
124 [label="koi_steff_err1 <= 90.5\ngini = 0.375\nsamples = 4\nvalue = [1, 3]\nclass = NOT CONFIRMED", fillcolor="#7bbeee"] ;
123 -> 124 ;
125 [label="gini = 0.0\nsamples = 3\nvalue = [0, 3]\nclass = NOT CONFIRMED", fillcolor="#399de5"] ;
124 -> 125 ;
126 [label="gini = 0.0\nsamples = 1\nvalue = [1, 0]\nclass = CONFIRMED", fillcolor="#e58139"] ;
124 -> 126 ;
127 [label="koi_srad_err1 <= 0.022\ngini = 0.024\nsamples = 324\nvalue = [4, 320]\nclass = NOT CONFIRMED", fillcolor="#3b9ee5"] ;
123 -> 127 ;
128 [label="koi_depth <= 1498.6\ngini = 0.32\nsamples = 5\nvalue = [1, 4]\nclass = NOT CONFIRMED", fillcolor="#6ab6ec"] ;
127 -> 128 ;
129 [label="gini = 0.0\nsamples = 4\nvalue = [0, 4]\nclass = NOT CONFIRMED", fillcolor="#399de5"] ;
128 -> 129 ;
130 [label="gini = 0.0\nsamples = 1\nvalue = [1, 0]\nclass = CONFIRMED", fillcolor="#e58139"] ;
128 -> 130 ;
131 [label="koi_impact <= 0.896\ngini = 0.019\nsamples = 319\nvalue = [3, 316]\nclass = NOT CONFIRMED", fillcolor="#3b9ee5"] ;
127 -> 131 ;
132 [label="koi_time0bk <= 190.783\ngini = 0.013\nsamples = 312\nvalue = [2, 310]\nclass = NOT CONFIRMED", fillcolor="#3a9ee5"] ;
131 -> 132 ;
133 [label="koi_prad <= 1.08\ngini = 0.007\nsamples = 301\nvalue = [1, 300]\nclass = NOT CONFIRMED", fillcolor="#3a9de5"] ;
132 -> 133 ;
134 [label="dec <= 39.895\ngini = 0.153\nsamples = 12\nvalue = [1, 11]\nclass = NOT CONFIRMED", fillcolor="#4ba6e7"] ;
133 -> 134 ;
135 [label="gini = 0.0\nsamples = 1\nvalue = [1, 0]\nclass = CONFIRMED", fillcolor="#e58139"] ;
134 -> 135 ;
136 [label="gini = 0.0\nsamples = 11\nvalue = [0, 11]\nclass = NOT CONFIRMED", fillcolor="#399de5"] ;
134 -> 136 ;
137 [label="gini = 0.0\nsamples = 289\nvalue = [0, 289]\nclass = NOT CONFIRMED", fillcolor="#399de5"] ;
133 -> 137 ;
138 [label="koi_insol_err2 <= -6.21\ngini = 0.165\nsamples = 11\nvalue = [1, 10]\nclass = NOT CONFIRMED", fillcolor="#4da7e8"] ;
132 -> 138 ;
139 [label="gini = 0.0\nsamples = 1\nvalue = [1, 0]\nclass = CONFIRMED", fillcolor="#e58139"] ;
138 -> 139 ;
140 [label="gini = 0.0\nsamples = 10\nvalue = [0, 10]\nclass = NOT CONFIRMED", fillcolor="#399de5"] ;
138 -> 140 ;
141 [label="koi_period_err1 <= 0.0\ngini = 0.245\nsamples = 7\nvalue = [1, 6]\nclass = NOT CONFIRMED", fillcolor="#5aade9"] ;
131 -> 141 ;
142 [label="gini = 0.0\nsamples = 1\nvalue = [1, 0]\nclass = CONFIRMED", fillcolor="#e58139"] ;
141 -> 142 ;
143 [label="gini = 0.0\nsamples = 6\nvalue = [0, 6]\nclass = NOT CONFIRMED", fillcolor="#399de5"] ;
141 -> 143 ;
144 [label="koi_prad <= 11.185\ngini = 0.48\nsamples = 5\nvalue = [2, 3]\nclass = NOT CONFIRMED", fillcolor="#bddef6"] ;
112 -> 144 ;
145 [label="gini = 0.0\nsamples = 2\nvalue = [2, 0]\nclass = CONFIRMED", fillcolor="#e58139"] ;
144 -> 145 ;
146 [label="gini = 0.0\nsamples = 3\nvalue = [0, 3]\nclass = NOT CONFIRMED", fillcolor="#399de5"] ;
144 -> 146 ;
147 [label="koi_period <= 148.358\ngini = 0.5\nsamples = 4\nvalue = [2, 2]\nclass = CONFIRMED", fillcolor="#ffffff"] ;
73 -> 147 ;
148 [label="gini = 0.0\nsamples = 2\nvalue = [2, 0]\nclass = CONFIRMED", fillcolor="#e58139"] ;
147 -> 148 ;
149 [label="gini = 0.0\nsamples = 2\nvalue = [0, 2]\nclass = NOT CONFIRMED", fillcolor="#399de5"] ;
147 -> 149 ;
150 [label="koi_teq <= 679.5\ngini = 0.444\nsamples = 3\nvalue = [2, 1]\nclass = CONFIRMED", fillcolor="#f2c09c"] ;
60 -> 150 ;
151 [label="gini = 0.0\nsamples = 1\nvalue = [0, 1]\nclass = NOT CONFIRMED", fillcolor="#399de5"] ;
150 -> 151 ;
152 [label="gini = 0.0\nsamples = 2\nvalue = [2, 0]\nclass = CONFIRMED", fillcolor="#e58139"] ;
150 -> 152 ;
153 [label="koi_srad_err2 <= -0.151\ngini = 0.49\nsamples = 21\nvalue = [9, 12]\nclass = NOT CONFIRMED", fillcolor="#cee6f8"] ;
59 -> 153 ;
154 [label="gini = 0.0\nsamples = 4\nvalue = [4, 0]\nclass = CONFIRMED", fillcolor="#e58139"] ;
153 -> 154 ;
155 [label="koi_steff <= 3823.0\ngini = 0.415\nsamples = 17\nvalue = [5, 12]\nclass = NOT CONFIRMED", fillcolor="#8bc6f0"] ;
153 -> 155 ;
156 [label="gini = 0.0\nsamples = 2\nvalue = [2, 0]\nclass = CONFIRMED", fillcolor="#e58139"] ;
155 -> 156 ;
157 [label="koi_steff_err1 <= 109.5\ngini = 0.32\nsamples = 15\nvalue = [3, 12]\nclass = NOT CONFIRMED", fillcolor="#6ab6ec"] ;
155 -> 157 ;
158 [label="gini = 0.0\nsamples = 10\nvalue = [0, 10]\nclass = NOT CONFIRMED", fillcolor="#399de5"] ;
157 -> 158 ;
159 [label="koi_insol_err2 <= -0.865\ngini = 0.48\nsamples = 5\nvalue = [3, 2]\nclass = CONFIRMED", fillcolor="#f6d5bd"] ;
157 -> 159 ;
160 [label="koi_insol_err2 <= -88.75\ngini = 0.444\nsamples = 3\nvalue = [1, 2]\nclass = NOT CONFIRMED", fillcolor="#9ccef2"] ;
159 -> 160 ;
161 [label="gini = 0.0\nsamples = 1\nvalue = [1, 0]\nclass = CONFIRMED", fillcolor="#e58139"] ;
160 -> 161 ;
162 [label="gini = 0.0\nsamples = 2\nvalue = [0, 2]\nclass = NOT CONFIRMED", fillcolor="#399de5"] ;
160 -> 162 ;
163 [label="gini = 0.0\nsamples = 2\nvalue = [2, 0]\nclass = CONFIRMED", fillcolor="#e58139"] ;
159 -> 163 ;
164 [label="koi_depth_err1 <= 69.35\ngini = 0.444\nsamples = 12\nvalue = [8, 4]\nclass = CONFIRMED", fillcolor="#f2c09c"] ;
58 -> 164 ;
165 [label="gini = 0.0\nsamples = 4\nvalue = [0, 4]\nclass = NOT CONFIRMED", fillcolor="#399de5"] ;
164 -> 165 ;
166 [label="gini = 0.0\nsamples = 8\nvalue = [8, 0]\nclass = CONFIRMED", fillcolor="#e58139"] ;
164 -> 166 ;
167 [label="koi_tce_plnt_num <= 1.5\ngini = 0.362\nsamples = 581\nvalue = [138, 443]\nclass = NOT CONFIRMED", fillcolor="#77bced"] ;
57 -> 167 ;
168 [label="koi_time0bk <= 131.713\ngini = 0.425\nsamples = 333\nvalue = [102, 231]\nclass = NOT CONFIRMED", fillcolor="#90c8f0"] ;
167 -> 168 ;
169 [label="gini = 0.0\nsamples = 7\nvalue = [7, 0]\nclass = CONFIRMED", fillcolor="#e58139"] ;
168 -> 169 ;
170 [label="koi_teq <= 474.5\ngini = 0.413\nsamples = 326\nvalue = [95, 231]\nclass = NOT CONFIRMED", fillcolor="#8ac5f0"] ;
168 -> 170 ;
171 [label="koi_impact <= 0.825\ngini = 0.498\nsamples = 77\nvalue = [36, 41]\nclass = NOT CONFIRMED", fillcolor="#e7f3fc"] ;
170 -> 171 ;
172 [label="koi_steff_err2 <= -77.0\ngini = 0.464\nsamples = 60\nvalue = [22, 38]\nclass = NOT CONFIRMED", fillcolor="#acd6f4"] ;
171 -> 172 ;
173 [label="dec <= 38.646\ngini = 0.422\nsamples = 53\nvalue = [16, 37]\nclass = NOT CONFIRMED", fillcolor="#8fc7f0"] ;
172 -> 173 ;
174 [label="gini = 0.0\nsamples = 3\nvalue = [3, 0]\nclass = CONFIRMED", fillcolor="#e58139"] ;
173 -> 174 ;
175 [label="koi_insol <= 0.59\ngini = 0.385\nsamples = 50\nvalue = [13, 37]\nclass = NOT CONFIRMED", fillcolor="#7fbfee"] ;
173 -> 175 ;
176 [label="gini = 0.0\nsamples = 2\nvalue = [2, 0]\nclass = CONFIRMED", fillcolor="#e58139"] ;
175 -> 176 ;
177 [label="koi_steff_err1 <= 113.0\ngini = 0.353\nsamples = 48\nvalue = [11, 37]\nclass = NOT CONFIRMED", fillcolor="#74baed"] ;
175 -> 177 ;
178 [label="koi_period <= 227.48\ngini = 0.315\nsamples = 46\nvalue = [9, 37]\nclass = NOT CONFIRMED", fillcolor="#69b5eb"] ;
177 -> 178 ;
179 [label="koi_period_err2 <= -0.0\ngini = 0.224\nsamples = 39\nvalue = [5, 34]\nclass = NOT CONFIRMED", fillcolor="#56abe9"] ;
178 -> 179 ;
180 [label="koi_steff_err1 <= 106.0\ngini = 0.114\nsamples = 33\nvalue = [2, 31]\nclass = NOT CONFIRMED", fillcolor="#46a3e7"] ;
179 -> 180 ;
181 [label="gini = 0.0\nsamples = 27\nvalue = [0, 27]\nclass = NOT CONFIRMED", fillcolor="#399de5"] ;
180 -> 181 ;
182 [label="koi_srad_err1 <= 0.092\ngini = 0.444\nsamples = 6\nvalue = [2, 4]\nclass = NOT CONFIRMED", fillcolor="#9ccef2"] ;
180 -> 182 ;
183 [label="gini = 0.0\nsamples = 2\nvalue = [2, 0]\nclass = CONFIRMED", fillcolor="#e58139"] ;
182 -> 183 ;
184 [label="gini = 0.0\nsamples = 4\nvalue = [0, 4]\nclass = NOT CONFIRMED", fillcolor="#399de5"] ;
182 -> 184 ;
185 [label="koi_duration_err1 <= 0.088\ngini = 0.5\nsamples = 6\nvalue = [3, 3]\nclass = CONFIRMED", fillcolor="#ffffff"] ;
179 -> 185 ;
186 [label="koi_prad_err2 <= -0.08\ngini = 0.375\nsamples = 4\nvalue = [3, 1]\nclass = CONFIRMED", fillcolor="#eeab7b"] ;
185 -> 186 ;
187 [label="gini = 0.0\nsamples = 3\nvalue = [3, 0]\nclass = CONFIRMED", fillcolor="#e58139"] ;
186 -> 187 ;
188 [label="gini = 0.0\nsamples = 1\nvalue = [0, 1]\nclass = NOT CONFIRMED", fillcolor="#399de5"] ;
186 -> 188 ;
189 [label="gini = 0.0\nsamples = 2\nvalue = [0, 2]\nclass = NOT CONFIRMED", fillcolor="#399de5"] ;
185 -> 189 ;
190 [label="koi_depth_err2 <= -36.7\ngini = 0.49\nsamples = 7\nvalue = [4, 3]\nclass = CONFIRMED", fillcolor="#f8e0ce"] ;
178 -> 190 ;
191 [label="gini = 0.0\nsamples = 4\nvalue = [4, 0]\nclass = CONFIRMED", fillcolor="#e58139"] ;
190 -> 191 ;
192 [label="gini = 0.0\nsamples = 3\nvalue = [0, 3]\nclass = NOT CONFIRMED", fillcolor="#399de5"] ;
190 -> 192 ;
193 [label="gini = 0.0\nsamples = 2\nvalue = [2, 0]\nclass = CONFIRMED", fillcolor="#e58139"] ;
177 -> 193 ;
194 [label="koi_time0bk_err1 <= 0.005\ngini = 0.245\nsamples = 7\nvalue = [6, 1]\nclass = CONFIRMED", fillcolor="#e9965a"] ;
172 -> 194 ;
195 [label="gini = 0.0\nsamples = 6\nvalue = [6, 0]\nclass = CONFIRMED", fillcolor="#e58139"] ;
194 -> 195 ;
196 [label="gini = 0.0\nsamples = 1\nvalue = [0, 1]\nclass = NOT CONFIRMED", fillcolor="#399de5"] ;
194 -> 196 ;
197 [label="koi_prad_err2 <= -0.165\ngini = 0.291\nsamples = 17\nvalue = [14, 3]\nclass = CONFIRMED", fillcolor="#eb9c63"] ;
171 -> 197 ;
198 [label="koi_slogg_err2 <= -0.115\ngini = 0.133\nsamples = 14\nvalue = [13, 1]\nclass = CONFIRMED", fillcolor="#e78b48"] ;
197 -> 198 ;
199 [label="koi_time0bk_err1 <= 0.006\ngini = 0.444\nsamples = 3\nvalue = [2, 1]\nclass = CONFIRMED", fillcolor="#f2c09c"] ;
198 -> 199 ;
200 [label="gini = 0.0\nsamples = 2\nvalue = [2, 0]\nclass = CONFIRMED", fillcolor="#e58139"] ;
199 -> 200 ;
201 [label="gini = 0.0\nsamples = 1\nvalue = [0, 1]\nclass = NOT CONFIRMED", fillcolor="#399de5"] ;
199 -> 201 ;
202 [label="gini = 0.0\nsamples = 11\nvalue = [11, 0]\nclass = CONFIRMED", fillcolor="#e58139"] ;
198 -> 202 ;
203 [label="koi_insol_err2 <= -0.34\ngini = 0.444\nsamples = 3\nvalue = [1, 2]\nclass = NOT CONFIRMED", fillcolor="#9ccef2"] ;
197 -> 203 ;
204 [label="gini = 0.0\nsamples = 2\nvalue = [0, 2]\nclass = NOT CONFIRMED", fillcolor="#399de5"] ;
203 -> 204 ;
205 [label="gini = 0.0\nsamples = 1\nvalue = [1, 0]\nclass = CONFIRMED", fillcolor="#e58139"] ;
203 -> 205 ;
206 [label="dec <= 45.614\ngini = 0.362\nsamples = 249\nvalue = [59, 190]\nclass = NOT CONFIRMED", fillcolor="#76bbed"] ;
170 -> 206 ;
207 [label="koi_period <= 4.388\ngini = 0.432\nsamples = 149\nvalue = [47, 102]\nclass = NOT CONFIRMED", fillcolor="#94caf1"] ;
206 -> 207 ;
208 [label="koi_model_snr <= 28.0\ngini = 0.469\nsamples = 24\nvalue = [15, 9]\nclass = CONFIRMED", fillcolor="#f5cdb0"] ;
207 -> 208 ;
209 [label="koi_model_snr <= 19.9\ngini = 0.498\nsamples = 17\nvalue = [8, 9]\nclass = NOT CONFIRMED", fillcolor="#e9f4fc"] ;
208 -> 209 ;
210 [label="koi_period <= 3.249\ngini = 0.397\nsamples = 11\nvalue = [8, 3]\nclass = CONFIRMED", fillcolor="#efb083"] ;
209 -> 210 ;
211 [label="koi_time0bk <= 133.174\ngini = 0.48\nsamples = 5\nvalue = [2, 3]\nclass = NOT CONFIRMED", fillcolor="#bddef6"] ;
210 -> 211 ;
212 [label="gini = 0.0\nsamples = 3\nvalue = [0, 3]\nclass = NOT CONFIRMED", fillcolor="#399de5"] ;
211 -> 212 ;
213 [label="gini = 0.0\nsamples = 2\nvalue = [2, 0]\nclass = CONFIRMED", fillcolor="#e58139"] ;
211 -> 213 ;
214 [label="gini = 0.0\nsamples = 6\nvalue = [6, 0]\nclass = CONFIRMED", fillcolor="#e58139"] ;
210 -> 214 ;
215 [label="gini = 0.0\nsamples = 6\nvalue = [0, 6]\nclass = NOT CONFIRMED", fillcolor="#399de5"] ;
209 -> 215 ;
216 [label="gini = 0.0\nsamples = 7\nvalue = [7, 0]\nclass = CONFIRMED", fillcolor="#e58139"] ;
208 -> 216 ;
217 [label="koi_impact <= 0.175\ngini = 0.381\nsamples = 125\nvalue = [32, 93]\nclass = NOT CONFIRMED", fillcolor="#7dbfee"] ;
207 -> 217 ;
218 [label="koi_period_err1 <= 0.0\ngini = 0.483\nsamples = 49\nvalue = [20, 29]\nclass = NOT CONFIRMED", fillcolor="#c2e1f7"] ;
217 -> 218 ;
219 [label="koi_duration <= 2.363\ngini = 0.266\nsamples = 19\nvalue = [3, 16]\nclass = NOT CONFIRMED", fillcolor="#5eafea"] ;
218 -> 219 ;
220 [label="gini = 0.0\nsamples = 2\nvalue = [2, 0]\nclass = CONFIRMED", fillcolor="#e58139"] ;
219 -> 220 ;
221 [label="koi_period_err2 <= -0.0\ngini = 0.111\nsamples = 17\nvalue = [1, 16]\nclass = NOT CONFIRMED", fillcolor="#45a3e7"] ;
219 -> 221 ;
222 [label="gini = 0.0\nsamples = 16\nvalue = [0, 16]\nclass = NOT CONFIRMED", fillcolor="#399de5"] ;
221 -> 222 ;
223 [label="gini = 0.0\nsamples = 1\nvalue = [1, 0]\nclass = CONFIRMED", fillcolor="#e58139"] ;
221 -> 223 ;
224 [label="koi_kepmag <= 13.495\ngini = 0.491\nsamples = 30\nvalue = [17, 13]\nclass = CONFIRMED", fillcolor="#f9e1d0"] ;
218 -> 224 ;
225 [label="gini = 0.0\nsamples = 6\nvalue = [6, 0]\nclass = CONFIRMED", fillcolor="#e58139"] ;
224 -> 225 ;
226 [label="koi_duration <= 4.013\ngini = 0.497\nsamples = 24\nvalue = [11, 13]\nclass = NOT CONFIRMED", fillcolor="#e1f0fb"] ;
224 -> 226 ;
227 [label="gini = 0.0\nsamples = 5\nvalue = [5, 0]\nclass = CONFIRMED", fillcolor="#e58139"] ;
226 -> 227 ;
228 [label="koi_steff <= 5946.5\ngini = 0.432\nsamples = 19\nvalue = [6, 13]\nclass = NOT CONFIRMED", fillcolor="#94caf1"] ;
226 -> 228 ;
229 [label="koi_slogg_err2 <= -0.089\ngini = 0.497\nsamples = 13\nvalue = [6, 7]\nclass = NOT CONFIRMED", fillcolor="#e3f1fb"] ;
228 -> 229 ;
230 [label="koi_srad_err1 <= 0.181\ngini = 0.444\nsamples = 9\nvalue = [6, 3]\nclass = CONFIRMED", fillcolor="#f2c09c"] ;
229 -> 230 ;
231 [label="koi_kepmag <= 14.756\ngini = 0.375\nsamples = 4\nvalue = [1, 3]\nclass = NOT CONFIRMED", fillcolor="#7bbeee"] ;
230 -> 231 ;
232 [label="gini = 0.0\nsamples = 3\nvalue = [0, 3]\nclass = NOT CONFIRMED", fillcolor="#399de5"] ;
231 -> 232 ;
233 [label="gini = 0.0\nsamples = 1\nvalue = [1, 0]\nclass = CONFIRMED", fillcolor="#e58139"] ;
231 -> 233 ;
234 [label="gini = 0.0\nsamples = 5\nvalue = [5, 0]\nclass = CONFIRMED", fillcolor="#e58139"] ;
230 -> 234 ;
235 [label="gini = 0.0\nsamples = 4\nvalue = [0, 4]\nclass = NOT CONFIRMED", fillcolor="#399de5"] ;
229 -> 235 ;
236 [label="gini = 0.0\nsamples = 6\nvalue = [0, 6]\nclass = NOT CONFIRMED", fillcolor="#399de5"] ;
228 -> 236 ;
237 [label="koi_prad <= 1.07\ngini = 0.266\nsamples = 76\nvalue = [12, 64]\nclass = NOT CONFIRMED", fillcolor="#5eafea"] ;
217 -> 237 ;
238 [label="koi_impact <= 0.31\ngini = 0.444\nsamples = 6\nvalue = [4, 2]\nclass = CONFIRMED", fillcolor="#f2c09c"] ;
237 -> 238 ;
239 [label="gini = 0.0\nsamples = 2\nvalue = [0, 2]\nclass = NOT CONFIRMED", fillcolor="#399de5"] ;
238 -> 239 ;
240 [label="gini = 0.0\nsamples = 4\nvalue = [4, 0]\nclass = CONFIRMED", fillcolor="#e58139"] ;
238 -> 240 ;
241 [label="koi_srad_err1 <= 0.339\ngini = 0.202\nsamples = 70\nvalue = [8, 62]\nclass = NOT CONFIRMED", fillcolor="#53aae8"] ;
237 -> 241 ;
242 [label="dec <= 45.523\ngini = 0.142\nsamples = 65\nvalue = [5, 60]\nclass = NOT CONFIRMED", fillcolor="#49a5e7"] ;
241 -> 242 ;
243 [label="koi_kepmag <= 10.419\ngini = 0.117\nsamples = 64\nvalue = [4, 60]\nclass = NOT CONFIRMED", fillcolor="#46a4e7"] ;
242 -> 243 ;
244 [label="gini = 0.0\nsamples = 1\nvalue = [1, 0]\nclass = CONFIRMED", fillcolor="#e58139"] ;
243 -> 244 ;
245 [label="koi_impact_err1 <= 0.476\ngini = 0.091\nsamples = 63\nvalue = [3, 60]\nclass = NOT CONFIRMED", fillcolor="#43a2e6"] ;
243 -> 245 ;
246 [label="koi_prad <= 1.225\ngini = 0.062\nsamples = 62\nvalue = [2, 60]\nclass = NOT CONFIRMED", fillcolor="#40a0e6"] ;
245 -> 246 ;
247 [label="koi_time0bk_err2 <= -0.005\ngini = 0.444\nsamples = 3\nvalue = [1, 2]\nclass = NOT CONFIRMED", fillcolor="#9ccef2"] ;
246 -> 247 ;
248 [label="gini = 0.0\nsamples = 2\nvalue = [0, 2]\nclass = NOT CONFIRMED", fillcolor="#399de5"] ;
247 -> 248 ;
249 [label="gini = 0.0\nsamples = 1\nvalue = [1, 0]\nclass = CONFIRMED", fillcolor="#e58139"] ;
247 -> 249 ;
250 [label="koi_time0bk <= 133.359\ngini = 0.033\nsamples = 59\nvalue = [1, 58]\nclass = NOT CONFIRMED", fillcolor="#3c9fe5"] ;
246 -> 250 ;
251 [label="koi_depth <= 187.15\ngini = 0.444\nsamples = 3\nvalue = [1, 2]\nclass = NOT CONFIRMED", fillcolor="#9ccef2"] ;
250 -> 251 ;
252 [label="gini = 0.0\nsamples = 2\nvalue = [0, 2]\nclass = NOT CONFIRMED", fillcolor="#399de5"] ;
251 -> 252 ;
253 [label="gini = 0.0\nsamples = 1\nvalue = [1, 0]\nclass = CONFIRMED", fillcolor="#e58139"] ;
251 -> 253 ;
254 [label="gini = 0.0\nsamples = 56\nvalue = [0, 56]\nclass = NOT CONFIRMED", fillcolor="#399de5"] ;
250 -> 254 ;
255 [label="gini = 0.0\nsamples = 1\nvalue = [1, 0]\nclass = CONFIRMED", fillcolor="#e58139"] ;
245 -> 255 ;
256 [label="gini = 0.0\nsamples = 1\nvalue = [1, 0]\nclass = CONFIRMED", fillcolor="#e58139"] ;
242 -> 256 ;
257 [label="koi_kepmag <= 13.746\ngini = 0.48\nsamples = 5\nvalue = [3, 2]\nclass = CONFIRMED", fillcolor="#f6d5bd"] ;
241 -> 257 ;
258 [label="gini = 0.0\nsamples = 3\nvalue = [3, 0]\nclass = CONFIRMED", fillcolor="#e58139"] ;
257 -> 258 ;
259 [label="gini = 0.0\nsamples = 2\nvalue = [0, 2]\nclass = NOT CONFIRMED", fillcolor="#399de5"] ;
257 -> 259 ;
260 [label="koi_slogg <= 4.685\ngini = 0.211\nsamples = 100\nvalue = [12, 88]\nclass = NOT CONFIRMED", fillcolor="#54aae9"] ;
206 -> 260 ;
261 [label="koi_impact <= 0.009\ngini = 0.183\nsamples = 98\nvalue = [10, 88]\nclass = NOT CONFIRMED", fillcolor="#50a8e8"] ;
260 -> 261 ;
262 [label="gini = 0.0\nsamples = 2\nvalue = [2, 0]\nclass = CONFIRMED", fillcolor="#e58139"] ;
261 -> 262 ;
263 [label="koi_depth_err2 <= -2.2\ngini = 0.153\nsamples = 96\nvalue = [8, 88]\nclass = NOT CONFIRMED", fillcolor="#4ba6e7"] ;
261 -> 263 ;
264 [label="koi_time0bk_err2 <= -0.008\ngini = 0.121\nsamples = 93\nvalue = [6, 87]\nclass = NOT CONFIRMED", fillcolor="#47a4e7"] ;
263 -> 264 ;
265 [label="koi_period <= 11.388\ngini = 0.444\nsamples = 6\nvalue = [2, 4]\nclass = NOT CONFIRMED", fillcolor="#9ccef2"] ;
264 -> 265 ;
266 [label="gini = 0.0\nsamples = 3\nvalue = [0, 3]\nclass = NOT CONFIRMED", fillcolor="#399de5"] ;
265 -> 266 ;
267 [label="dec <= 47.558\ngini = 0.444\nsamples = 3\nvalue = [2, 1]\nclass = CONFIRMED", fillcolor="#f2c09c"] ;
265 -> 267 ;
268 [label="gini = 0.0\nsamples = 1\nvalue = [0, 1]\nclass = NOT CONFIRMED", fillcolor="#399de5"] ;
267 -> 268 ;
269 [label="gini = 0.0\nsamples = 2\nvalue = [2, 0]\nclass = CONFIRMED", fillcolor="#e58139"] ;
267 -> 269 ;
270 [label="koi_steff <= 6366.5\ngini = 0.088\nsamples = 87\nvalue = [4, 83]\nclass = NOT CONFIRMED", fillcolor="#43a2e6"] ;
264 -> 270 ;
271 [label="koi_impact <= 0.198\ngini = 0.068\nsamples = 85\nvalue = [3, 82]\nclass = NOT CONFIRMED", fillcolor="#40a1e6"] ;
270 -> 271 ;
272 [label="koi_depth_err2 <= -22.55\ngini = 0.191\nsamples = 28\nvalue = [3, 25]\nclass = NOT CONFIRMED", fillcolor="#51a9e8"] ;
271 -> 272 ;
273 [label="koi_slogg_err1 <= 0.023\ngini = 0.444\nsamples = 3\nvalue = [2, 1]\nclass = CONFIRMED", fillcolor="#f2c09c"] ;
272 -> 273 ;
274 [label="gini = 0.0\nsamples = 1\nvalue = [0, 1]\nclass = NOT CONFIRMED", fillcolor="#399de5"] ;
273 -> 274 ;
275 [label="gini = 0.0\nsamples = 2\nvalue = [2, 0]\nclass = CONFIRMED", fillcolor="#e58139"] ;
273 -> 275 ;
276 [label="koi_impact_err1 <= 0.252\ngini = 0.077\nsamples = 25\nvalue = [1, 24]\nclass = NOT CONFIRMED", fillcolor="#41a1e6"] ;
272 -> 276 ;
277 [label="gini = 0.0\nsamples = 1\nvalue = [1, 0]\nclass = CONFIRMED", fillcolor="#e58139"] ;
276 -> 277 ;
278 [label="gini = 0.0\nsamples = 24\nvalue = [0, 24]\nclass = NOT CONFIRMED", fillcolor="#399de5"] ;
276 -> 278 ;
279 [label="gini = 0.0\nsamples = 57\nvalue = [0, 57]\nclass = NOT CONFIRMED", fillcolor="#399de5"] ;
271 -> 279 ;
280 [label="koi_period_err1 <= 0.0\ngini = 0.5\nsamples = 2\nvalue = [1, 1]\nclass = CONFIRMED", fillcolor="#ffffff"] ;
270 -> 280 ;
281 [label="gini = 0.0\nsamples = 1\nvalue = [1, 0]\nclass = CONFIRMED", fillcolor="#e58139"] ;
280 -> 281 ;
282 [label="gini = 0.0\nsamples = 1\nvalue = [0, 1]\nclass = NOT CONFIRMED", fillcolor="#399de5"] ;
280 -> 282 ;
283 [label="koi_duration_err1 <= 0.108\ngini = 0.444\nsamples = 3\nvalue = [2, 1]\nclass = CONFIRMED", fillcolor="#f2c09c"] ;
263 -> 283 ;
284 [label="gini = 0.0\nsamples = 1\nvalue = [0, 1]\nclass = NOT CONFIRMED", fillcolor="#399de5"] ;
283 -> 284 ;
285 [label="gini = 0.0\nsamples = 2\nvalue = [2, 0]\nclass = CONFIRMED", fillcolor="#e58139"] ;
283 -> 285 ;
286 [label="gini = 0.0\nsamples = 2\nvalue = [2, 0]\nclass = CONFIRMED", fillcolor="#e58139"] ;
260 -> 286 ;
287 [label="koi_model_snr <= 16.35\ngini = 0.248\nsamples = 248\nvalue = [36, 212]\nclass = NOT CONFIRMED", fillcolor="#5baee9"] ;
167 -> 287 ;
288 [label="koi_time0bk <= 353.169\ngini = 0.44\nsamples = 52\nvalue = [17, 35]\nclass = NOT CONFIRMED", fillcolor="#99cdf2"] ;
287 -> 288 ;
289 [label="koi_time0bk_err1 <= 0.009\ngini = 0.408\nsamples = 49\nvalue = [14, 35]\nclass = NOT CONFIRMED", fillcolor="#88c4ef"] ;
288 -> 289 ;
290 [label="koi_impact_err2 <= -0.27\ngini = 0.38\nsamples = 47\nvalue = [12, 35]\nclass = NOT CONFIRMED", fillcolor="#7dbfee"] ;
289 -> 290 ;
291 [label="koi_kepmag <= 11.321\ngini = 0.231\nsamples = 30\nvalue = [4, 26]\nclass = NOT CONFIRMED", fillcolor="#57ace9"] ;
290 -> 291 ;
292 [label="gini = 0.0\nsamples = 1\nvalue = [1, 0]\nclass = CONFIRMED", fillcolor="#e58139"] ;
291 -> 292 ;
293 [label="koi_duration <= 1.185\ngini = 0.185\nsamples = 29\nvalue = [3, 26]\nclass = NOT CONFIRMED", fillcolor="#50a8e8"] ;
291 -> 293 ;
294 [label="gini = 0.0\nsamples = 1\nvalue = [1, 0]\nclass = CONFIRMED", fillcolor="#e58139"] ;
293 -> 294 ;
295 [label="koi_model_snr <= 16.1\ngini = 0.133\nsamples = 28\nvalue = [2, 26]\nclass = NOT CONFIRMED", fillcolor="#48a5e7"] ;
293 -> 295 ;
296 [label="gini = 0.0\nsamples = 23\nvalue = [0, 23]\nclass = NOT CONFIRMED", fillcolor="#399de5"] ;
295 -> 296 ;
297 [label="koi_time0bk_err2 <= -0.005\ngini = 0.48\nsamples = 5\nvalue = [2, 3]\nclass = NOT CONFIRMED", fillcolor="#bddef6"] ;
295 -> 297 ;
298 [label="gini = 0.0\nsamples = 2\nvalue = [2, 0]\nclass = CONFIRMED", fillcolor="#e58139"] ;
297 -> 298 ;
299 [label="gini = 0.0\nsamples = 3\nvalue = [0, 3]\nclass = NOT CONFIRMED", fillcolor="#399de5"] ;
297 -> 299 ;
300 [label="koi_srad <= 1.101\ngini = 0.498\nsamples = 17\nvalue = [8, 9]\nclass = NOT CONFIRMED", fillcolor="#e9f4fc"] ;
290 -> 300 ;
301 [label="koi_time0bk <= 136.021\ngini = 0.444\nsamples = 12\nvalue = [8, 4]\nclass = CONFIRMED", fillcolor="#f2c09c"] ;
300 -> 301 ;
302 [label="gini = 0.0\nsamples = 6\nvalue = [6, 0]\nclass = CONFIRMED", fillcolor="#e58139"] ;
301 -> 302 ;
303 [label="koi_prad <= 0.915\ngini = 0.444\nsamples = 6\nvalue = [2, 4]\nclass = NOT CONFIRMED", fillcolor="#9ccef2"] ;
301 -> 303 ;
304 [label="gini = 0.0\nsamples = 2\nvalue = [2, 0]\nclass = CONFIRMED", fillcolor="#e58139"] ;
303 -> 304 ;
305 [label="gini = 0.0\nsamples = 4\nvalue = [0, 4]\nclass = NOT CONFIRMED", fillcolor="#399de5"] ;
303 -> 305 ;
306 [label="gini = 0.0\nsamples = 5\nvalue = [0, 5]\nclass = NOT CONFIRMED", fillcolor="#399de5"] ;
300 -> 306 ;
307 [label="gini = 0.0\nsamples = 2\nvalue = [2, 0]\nclass = CONFIRMED", fillcolor="#e58139"] ;
289 -> 307 ;
308 [label="gini = 0.0\nsamples = 3\nvalue = [3, 0]\nclass = CONFIRMED", fillcolor="#e58139"] ;
288 -> 308 ;
309 [label="koi_steff <= 6223.5\ngini = 0.175\nsamples = 196\nvalue = [19, 177]\nclass = NOT CONFIRMED", fillcolor="#4ea8e8"] ;
287 -> 309 ;
310 [label="koi_slogg_err1 <= 0.01\ngini = 0.145\nsamples = 190\nvalue = [15, 175]\nclass = NOT CONFIRMED", fillcolor="#4aa5e7"] ;
309 -> 310 ;
311 [label="gini = 0.0\nsamples = 1\nvalue = [1, 0]\nclass = CONFIRMED", fillcolor="#e58139"] ;
310 -> 311 ;
312 [label="koi_kepmag <= 16.557\ngini = 0.137\nsamples = 189\nvalue = [14, 175]\nclass = NOT CONFIRMED", fillcolor="#49a5e7"] ;
310 -> 312 ;
313 [label="ra <= 281.378\ngini = 0.129\nsamples = 188\nvalue = [13, 175]\nclass = NOT CONFIRMED", fillcolor="#48a4e7"] ;
312 -> 313 ;
314 [label="gini = 0.0\nsamples = 1\nvalue = [1, 0]\nclass = CONFIRMED", fillcolor="#e58139"] ;
313 -> 314 ;
315 [label="koi_depth_err1 <= 1.9\ngini = 0.12\nsamples = 187\nvalue = [12, 175]\nclass = NOT CONFIRMED", fillcolor="#47a4e7"] ;
313 -> 315 ;
316 [label="gini = 0.0\nsamples = 1\nvalue = [1, 0]\nclass = CONFIRMED", fillcolor="#e58139"] ;
315 -> 316 ;
317 [label="koi_impact_err1 <= 0.01\ngini = 0.111\nsamples = 186\nvalue = [11, 175]\nclass = NOT CONFIRMED", fillcolor="#45a3e7"] ;
315 -> 317 ;
318 [label="koi_prad_err1 <= 0.17\ngini = 0.48\nsamples = 5\nvalue = [2, 3]\nclass = NOT CONFIRMED", fillcolor="#bddef6"] ;
317 -> 318 ;
319 [label="gini = 0.0\nsamples = 2\nvalue = [2, 0]\nclass = CONFIRMED", fillcolor="#e58139"] ;
318 -> 319 ;
320 [label="gini = 0.0\nsamples = 3\nvalue = [0, 3]\nclass = NOT CONFIRMED", fillcolor="#399de5"] ;
318 -> 320 ;
321 [label="koi_steff_err2 <= -76.5\ngini = 0.095\nsamples = 181\nvalue = [9, 172]\nclass = NOT CONFIRMED", fillcolor="#43a2e6"] ;
317 -> 321 ;
322 [label="koi_impact <= 0.003\ngini = 0.06\nsamples = 161\nvalue = [5, 156]\nclass = NOT CONFIRMED", fillcolor="#3fa0e6"] ;
321 -> 322 ;
323 [label="koi_insol <= 12.495\ngini = 0.5\nsamples = 2\nvalue = [1, 1]\nclass = CONFIRMED", fillcolor="#ffffff"] ;
322 -> 323 ;
324 [label="gini = 0.0\nsamples = 1\nvalue = [0, 1]\nclass = NOT CONFIRMED", fillcolor="#399de5"] ;
323 -> 324 ;
325 [label="gini = 0.0\nsamples = 1\nvalue = [1, 0]\nclass = CONFIRMED", fillcolor="#e58139"] ;
323 -> 325 ;
326 [label="koi_prad_err1 <= 0.085\ngini = 0.049\nsamples = 159\nvalue = [4, 155]\nclass = NOT CONFIRMED", fillcolor="#3ea0e6"] ;
322 -> 326 ;
327 [label="dec <= 40.096\ngini = 0.219\nsamples = 16\nvalue = [2, 14]\nclass = NOT CONFIRMED", fillcolor="#55abe9"] ;
326 -> 327 ;
328 [label="gini = 0.0\nsamples = 2\nvalue = [2, 0]\nclass = CONFIRMED", fillcolor="#e58139"] ;
327 -> 328 ;
329 [label="gini = 0.0\nsamples = 14\nvalue = [0, 14]\nclass = NOT CONFIRMED", fillcolor="#399de5"] ;
327 -> 329 ;
330 [label="koi_time0bk <= 132.024\ngini = 0.028\nsamples = 143\nvalue = [2, 141]\nclass = NOT CONFIRMED", fillcolor="#3c9ee5"] ;
326 -> 330 ;
331 [label="koi_time0bk <= 131.927\ngini = 0.32\nsamples = 5\nvalue = [1, 4]\nclass = NOT CONFIRMED", fillcolor="#6ab6ec"] ;
330 -> 331 ;
332 [label="gini = 0.0\nsamples = 4\nvalue = [0, 4]\nclass = NOT CONFIRMED", fillcolor="#399de5"] ;
331 -> 332 ;
333 [label="gini = 0.0\nsamples = 1\nvalue = [1, 0]\nclass = CONFIRMED", fillcolor="#e58139"] ;
331 -> 333 ;
334 [label="dec <= 49.423\ngini = 0.014\nsamples = 138\nvalue = [1, 137]\nclass = NOT CONFIRMED", fillcolor="#3a9ee5"] ;
330 -> 334 ;
335 [label="gini = 0.0\nsamples = 132\nvalue = [0, 132]\nclass = NOT CONFIRMED", fillcolor="#399de5"] ;
334 -> 335 ;
336 [label="koi_kepmag <= 13.273\ngini = 0.278\nsamples = 6\nvalue = [1, 5]\nclass = NOT CONFIRMED", fillcolor="#61b1ea"] ;
334 -> 336 ;
337 [label="gini = 0.0\nsamples = 1\nvalue = [1, 0]\nclass = CONFIRMED", fillcolor="#e58139"] ;
336 -> 337 ;
338 [label="gini = 0.0\nsamples = 5\nvalue = [0, 5]\nclass = NOT CONFIRMED", fillcolor="#399de5"] ;
336 -> 338 ;
339 [label="koi_steff_err2 <= -73.5\ngini = 0.32\nsamples = 20\nvalue = [4, 16]\nclass = NOT CONFIRMED", fillcolor="#6ab6ec"] ;
321 -> 339 ;
340 [label="koi_time0bk <= 144.511\ngini = 0.32\nsamples = 5\nvalue = [4, 1]\nclass = CONFIRMED", fillcolor="#eca06a"] ;
339 -> 340 ;
341 [label="gini = 0.0\nsamples = 4\nvalue = [4, 0]\nclass = CONFIRMED", fillcolor="#e58139"] ;
340 -> 341 ;
342 [label="gini = 0.0\nsamples = 1\nvalue = [0, 1]\nclass = NOT CONFIRMED", fillcolor="#399de5"] ;
340 -> 342 ;
343 [label="gini = 0.0\nsamples = 15\nvalue = [0, 15]\nclass = NOT CONFIRMED", fillcolor="#399de5"] ;
339 -> 343 ;
344 [label="gini = 0.0\nsamples = 1\nvalue = [1, 0]\nclass = CONFIRMED", fillcolor="#e58139"] ;
312 -> 344 ;
345 [label="koi_time0bk_err2 <= -0.004\ngini = 0.444\nsamples = 6\nvalue = [4, 2]\nclass = CONFIRMED", fillcolor="#f2c09c"] ;
309 -> 345 ;
346 [label="gini = 0.0\nsamples = 3\nvalue = [3, 0]\nclass = CONFIRMED", fillcolor="#e58139"] ;
345 -> 346 ;
347 [label="ra <= 299.108\ngini = 0.444\nsamples = 3\nvalue = [1, 2]\nclass = NOT CONFIRMED", fillcolor="#9ccef2"] ;
345 -> 347 ;
348 [label="gini = 0.0\nsamples = 2\nvalue = [0, 2]\nclass = NOT CONFIRMED", fillcolor="#399de5"] ;
347 -> 348 ;
349 [label="gini = 0.0\nsamples = 1\nvalue = [1, 0]\nclass = CONFIRMED", fillcolor="#e58139"] ;
347 -> 349 ;
350 [label="koi_impact_err2 <= -0.644\ngini = 0.5\nsamples = 94\nvalue = [48, 46]\nclass = CONFIRMED", fillcolor="#fefaf7"] ;
40 -> 350 ;
351 [label="koi_tce_plnt_num <= 1.5\ngini = 0.469\nsamples = 72\nvalue = [27, 45]\nclass = NOT CONFIRMED", fillcolor="#b0d8f5"] ;
350 -> 351 ;
352 [label="koi_impact_err2 <= -0.704\ngini = 0.497\nsamples = 56\nvalue = [26, 30]\nclass = NOT CONFIRMED", fillcolor="#e5f2fc"] ;
351 -> 352 ;
353 [label="koi_steff_err2 <= -132.0\ngini = 0.18\nsamples = 10\nvalue = [9, 1]\nclass = CONFIRMED", fillcolor="#e88f4f"] ;
352 -> 353 ;
354 [label="gini = 0.0\nsamples = 1\nvalue = [0, 1]\nclass = NOT CONFIRMED", fillcolor="#399de5"] ;
353 -> 354 ;
355 [label="gini = 0.0\nsamples = 9\nvalue = [9, 0]\nclass = CONFIRMED", fillcolor="#e58139"] ;
353 -> 355 ;
356 [label="koi_prad <= 2.24\ngini = 0.466\nsamples = 46\nvalue = [17, 29]\nclass = NOT CONFIRMED", fillcolor="#add6f4"] ;
352 -> 356 ;
357 [label="dec <= 49.641\ngini = 0.311\nsamples = 26\nvalue = [5, 21]\nclass = NOT CONFIRMED", fillcolor="#68b4eb"] ;
356 -> 357 ;
358 [label="koi_srad <= 1.456\ngini = 0.159\nsamples = 23\nvalue = [2, 21]\nclass = NOT CONFIRMED", fillcolor="#4ca6e7"] ;
357 -> 358 ;
359 [label="koi_period_err2 <= -0.0\ngini = 0.087\nsamples = 22\nvalue = [1, 21]\nclass = NOT CONFIRMED", fillcolor="#42a2e6"] ;
358 -> 359 ;
360 [label="gini = 0.0\nsamples = 20\nvalue = [0, 20]\nclass = NOT CONFIRMED", fillcolor="#399de5"] ;
359 -> 360 ;
361 [label="koi_insol_err1 <= 21.73\ngini = 0.5\nsamples = 2\nvalue = [1, 1]\nclass = CONFIRMED", fillcolor="#ffffff"] ;
359 -> 361 ;
362 [label="gini = 0.0\nsamples = 1\nvalue = [0, 1]\nclass = NOT CONFIRMED", fillcolor="#399de5"] ;
361 -> 362 ;
363 [label="gini = 0.0\nsamples = 1\nvalue = [1, 0]\nclass = CONFIRMED", fillcolor="#e58139"] ;
361 -> 363 ;
364 [label="gini = 0.0\nsamples = 1\nvalue = [1, 0]\nclass = CONFIRMED", fillcolor="#e58139"] ;
358 -> 364 ;
365 [label="gini = 0.0\nsamples = 3\nvalue = [3, 0]\nclass = CONFIRMED", fillcolor="#e58139"] ;
357 -> 365 ;
366 [label="koi_srad_err1 <= 0.138\ngini = 0.48\nsamples = 20\nvalue = [12, 8]\nclass = CONFIRMED", fillcolor="#f6d5bd"] ;
356 -> 366 ;
367 [label="gini = 0.0\nsamples = 6\nvalue = [6, 0]\nclass = CONFIRMED", fillcolor="#e58139"] ;
366 -> 367 ;
368 [label="koi_srad_err1 <= 0.185\ngini = 0.49\nsamples = 14\nvalue = [6, 8]\nclass = NOT CONFIRMED", fillcolor="#cee6f8"] ;
366 -> 368 ;
369 [label="gini = 0.0\nsamples = 5\nvalue = [0, 5]\nclass = NOT CONFIRMED", fillcolor="#399de5"] ;
368 -> 369 ;
370 [label="koi_steff_err1 <= 115.0\ngini = 0.444\nsamples = 9\nvalue = [6, 3]\nclass = CONFIRMED", fillcolor="#f2c09c"] ;
368 -> 370 ;
371 [label="koi_kepmag <= 15.209\ngini = 0.245\nsamples = 7\nvalue = [6, 1]\nclass = CONFIRMED", fillcolor="#e9965a"] ;
370 -> 371 ;
372 [label="gini = 0.0\nsamples = 6\nvalue = [6, 0]\nclass = CONFIRMED", fillcolor="#e58139"] ;
371 -> 372 ;
373 [label="gini = 0.0\nsamples = 1\nvalue = [0, 1]\nclass = NOT CONFIRMED", fillcolor="#399de5"] ;
371 -> 373 ;
374 [label="gini = 0.0\nsamples = 2\nvalue = [0, 2]\nclass = NOT CONFIRMED", fillcolor="#399de5"] ;
370 -> 374 ;
375 [label="koi_impact_err2 <= -0.646\ngini = 0.117\nsamples = 16\nvalue = [1, 15]\nclass = NOT CONFIRMED", fillcolor="#46a4e7"] ;
351 -> 375 ;
376 [label="gini = 0.0\nsamples = 15\nvalue = [0, 15]\nclass = NOT CONFIRMED", fillcolor="#399de5"] ;
375 -> 376 ;
377 [label="gini = 0.0\nsamples = 1\nvalue = [1, 0]\nclass = CONFIRMED", fillcolor="#e58139"] ;
375 -> 377 ;
378 [label="koi_srad_err1 <= 0.247\ngini = 0.087\nsamples = 22\nvalue = [21, 1]\nclass = CONFIRMED", fillcolor="#e68742"] ;
350 -> 378 ;
379 [label="gini = 0.0\nsamples = 20\nvalue = [20, 0]\nclass = CONFIRMED", fillcolor="#e58139"] ;
378 -> 379 ;
380 [label="koi_srad_err1 <= 0.296\ngini = 0.5\nsamples = 2\nvalue = [1, 1]\nclass = CONFIRMED", fillcolor="#ffffff"] ;
378 -> 380 ;
381 [label="gini = 0.0\nsamples = 1\nvalue = [0, 1]\nclass = NOT CONFIRMED", fillcolor="#399de5"] ;
380 -> 381 ;
382 [label="gini = 0.0\nsamples = 1\nvalue = [1, 0]\nclass = CONFIRMED", fillcolor="#e58139"] ;
380 -> 382 ;
383 [label="koi_model_snr <= 14.85\ngini = 0.32\nsamples = 35\nvalue = [28, 7]\nclass = CONFIRMED", fillcolor="#eca06a"] ;
39 -> 383 ;
384 [label="gini = 0.0\nsamples = 2\nvalue = [0, 2]\nclass = NOT CONFIRMED", fillcolor="#399de5"] ;
383 -> 384 ;
385 [label="ra <= 297.779\ngini = 0.257\nsamples = 33\nvalue = [28, 5]\nclass = CONFIRMED", fillcolor="#ea985c"] ;
383 -> 385 ;
386 [label="koi_steff_err1 <= 49.5\ngini = 0.175\nsamples = 31\nvalue = [28, 3]\nclass = CONFIRMED", fillcolor="#e88e4e"] ;
385 -> 386 ;
387 [label="gini = 0.0\nsamples = 1\nvalue = [0, 1]\nclass = NOT CONFIRMED", fillcolor="#399de5"] ;
386 -> 387 ;
388 [label="koi_prad <= 1.185\ngini = 0.124\nsamples = 30\nvalue = [28, 2]\nclass = CONFIRMED", fillcolor="#e78a47"] ;
386 -> 388 ;
389 [label="koi_srad <= 1.034\ngini = 0.346\nsamples = 9\nvalue = [7, 2]\nclass = CONFIRMED", fillcolor="#eca572"] ;
388 -> 389 ;
390 [label="gini = 0.0\nsamples = 7\nvalue = [7, 0]\nclass = CONFIRMED", fillcolor="#e58139"] ;
389 -> 390 ;
391 [label="gini = 0.0\nsamples = 2\nvalue = [0, 2]\nclass = NOT CONFIRMED", fillcolor="#399de5"] ;
389 -> 391 ;
392 [label="gini = 0.0\nsamples = 21\nvalue = [21, 0]\nclass = CONFIRMED", fillcolor="#e58139"] ;
388 -> 392 ;
393 [label="gini = 0.0\nsamples = 2\nvalue = [0, 2]\nclass = NOT CONFIRMED", fillcolor="#399de5"] ;
385 -> 393 ;
394 [label="koi_time0bk <= 126.438\ngini = 0.053\nsamples = 184\nvalue = [179, 5]\nclass = CONFIRMED", fillcolor="#e6853f"] ;
2 -> 394 ;
395 [label="gini = 0.0\nsamples = 2\nvalue = [0, 2]\nclass = NOT CONFIRMED", fillcolor="#399de5"] ;
394 -> 395 ;
396 [label="koi_depth_err1 <= 5.4\ngini = 0.032\nsamples = 182\nvalue = [179, 3]\nclass = CONFIRMED", fillcolor="#e5833c"] ;
394 -> 396 ;
397 [label="koi_impact_err1 <= 0.05\ngini = 0.346\nsamples = 9\nvalue = [7, 2]\nclass = CONFIRMED", fillcolor="#eca572"] ;
396 -> 397 ;
398 [label="gini = 0.0\nsamples = 2\nvalue = [0, 2]\nclass = NOT CONFIRMED", fillcolor="#399de5"] ;
397 -> 398 ;
399 [label="gini = 0.0\nsamples = 7\nvalue = [7, 0]\nclass = CONFIRMED", fillcolor="#e58139"] ;
397 -> 399 ;
400 [label="koi_duration <= 1.109\ngini = 0.011\nsamples = 173\nvalue = [172, 1]\nclass = CONFIRMED", fillcolor="#e5823a"] ;
396 -> 400 ;
401 [label="koi_duration <= 1.098\ngini = 0.245\nsamples = 7\nvalue = [6, 1]\nclass = CONFIRMED", fillcolor="#e9965a"] ;
400 -> 401 ;
402 [label="gini = 0.0\nsamples = 6\nvalue = [6, 0]\nclass = CONFIRMED", fillcolor="#e58139"] ;
401 -> 402 ;
403 [label="gini = 0.0\nsamples = 1\nvalue = [0, 1]\nclass = NOT CONFIRMED", fillcolor="#399de5"] ;
401 -> 403 ;
404 [label="gini = 0.0\nsamples = 166\nvalue = [166, 0]\nclass = CONFIRMED", fillcolor="#e58139"] ;
400 -> 404 ;
405 [label="koi_model_snr <= 12.35\ngini = 0.28\nsamples = 593\nvalue = [493, 100]\nclass = CONFIRMED", fillcolor="#ea9b61"] ;
1 -> 405 ;
406 [label="koi_slogg_err1 <= 0.417\ngini = 0.078\nsamples = 318\nvalue = [305, 13]\nclass = CONFIRMED", fillcolor="#e68641"] ;
405 -> 406 ;
407 [label="koi_model_snr <= 11.35\ngini = 0.073\nsamples = 317\nvalue = [305, 12]\nclass = CONFIRMED", fillcolor="#e68641"] ;
406 -> 407 ;
408 [label="koi_steff <= 6019.5\ngini = 0.037\nsamples = 264\nvalue = [259, 5]\nclass = CONFIRMED", fillcolor="#e6833d"] ;
407 -> 408 ;
409 [label="koi_duration <= 2.533\ngini = 0.017\nsamples = 231\nvalue = [229, 2]\nclass = CONFIRMED", fillcolor="#e5823b"] ;
408 -> 409 ;
410 [label="koi_duration <= 2.513\ngini = 0.091\nsamples = 42\nvalue = [40, 2]\nclass = CONFIRMED", fillcolor="#e68743"] ;
409 -> 410 ;
411 [label="dec <= 49.653\ngini = 0.048\nsamples = 41\nvalue = [40, 1]\nclass = CONFIRMED", fillcolor="#e6843e"] ;
410 -> 411 ;
412 [label="gini = 0.0\nsamples = 39\nvalue = [39, 0]\nclass = CONFIRMED", fillcolor="#e58139"] ;
411 -> 412 ;
413 [label="koi_depth <= 139.85\ngini = 0.5\nsamples = 2\nvalue = [1, 1]\nclass = CONFIRMED", fillcolor="#ffffff"] ;
411 -> 413 ;
414 [label="gini = 0.0\nsamples = 1\nvalue = [1, 0]\nclass = CONFIRMED", fillcolor="#e58139"] ;
413 -> 414 ;
415 [label="gini = 0.0\nsamples = 1\nvalue = [0, 1]\nclass = NOT CONFIRMED", fillcolor="#399de5"] ;
413 -> 415 ;
416 [label="gini = 0.0\nsamples = 1\nvalue = [0, 1]\nclass = NOT CONFIRMED", fillcolor="#399de5"] ;
410 -> 416 ;
417 [label="gini = 0.0\nsamples = 189\nvalue = [189, 0]\nclass = CONFIRMED", fillcolor="#e58139"] ;
409 -> 417 ;
418 [label="koi_steff <= 6026.5\ngini = 0.165\nsamples = 33\nvalue = [30, 3]\nclass = CONFIRMED", fillcolor="#e88e4d"] ;
408 -> 418 ;
419 [label="gini = 0.0\nsamples = 1\nvalue = [0, 1]\nclass = NOT CONFIRMED", fillcolor="#399de5"] ;
418 -> 419 ;
420 [label="koi_depth <= 167.85\ngini = 0.117\nsamples = 32\nvalue = [30, 2]\nclass = CONFIRMED", fillcolor="#e78946"] ;
418 -> 420 ;
421 [label="gini = 0.0\nsamples = 25\nvalue = [25, 0]\nclass = CONFIRMED", fillcolor="#e58139"] ;
420 -> 421 ;
422 [label="koi_prad_err1 <= 0.47\ngini = 0.408\nsamples = 7\nvalue = [5, 2]\nclass = CONFIRMED", fillcolor="#efb388"] ;
420 -> 422 ;
423 [label="gini = 0.0\nsamples = 2\nvalue = [0, 2]\nclass = NOT CONFIRMED", fillcolor="#399de5"] ;
422 -> 423 ;
424 [label="gini = 0.0\nsamples = 5\nvalue = [5, 0]\nclass = CONFIRMED", fillcolor="#e58139"] ;
422 -> 424 ;
425 [label="koi_steff_err1 <= 80.5\ngini = 0.229\nsamples = 53\nvalue = [46, 7]\nclass = CONFIRMED", fillcolor="#e99457"] ;
407 -> 425 ;
426 [label="gini = 0.0\nsamples = 25\nvalue = [25, 0]\nclass = CONFIRMED", fillcolor="#e58139"] ;
425 -> 426 ;
427 [label="koi_teq <= 904.0\ngini = 0.375\nsamples = 28\nvalue = [21, 7]\nclass = CONFIRMED", fillcolor="#eeab7b"] ;
425 -> 427 ;
428 [label="koi_insol <= 32.915\ngini = 0.498\nsamples = 15\nvalue = [8, 7]\nclass = CONFIRMED", fillcolor="#fcefe6"] ;
427 -> 428 ;
429 [label="koi_impact_err1 <= 0.381\ngini = 0.346\nsamples = 9\nvalue = [7, 2]\nclass = CONFIRMED", fillcolor="#eca572"] ;
428 -> 429 ;
430 [label="koi_steff <= 5949.0\ngini = 0.219\nsamples = 8\nvalue = [7, 1]\nclass = CONFIRMED", fillcolor="#e99355"] ;
429 -> 430 ;
431 [label="gini = 0.0\nsamples = 7\nvalue = [7, 0]\nclass = CONFIRMED", fillcolor="#e58139"] ;
430 -> 431 ;
432 [label="gini = 0.0\nsamples = 1\nvalue = [0, 1]\nclass = NOT CONFIRMED", fillcolor="#399de5"] ;
430 -> 432 ;
433 [label="gini = 0.0\nsamples = 1\nvalue = [0, 1]\nclass = NOT CONFIRMED", fillcolor="#399de5"] ;
429 -> 433 ;
434 [label="ra <= 294.007\ngini = 0.278\nsamples = 6\nvalue = [1, 5]\nclass = NOT CONFIRMED", fillcolor="#61b1ea"] ;
428 -> 434 ;
435 [label="gini = 0.0\nsamples = 5\nvalue = [0, 5]\nclass = NOT CONFIRMED", fillcolor="#399de5"] ;
434 -> 435 ;
436 [label="gini = 0.0\nsamples = 1\nvalue = [1, 0]\nclass = CONFIRMED", fillcolor="#e58139"] ;
434 -> 436 ;
437 [label="gini = 0.0\nsamples = 13\nvalue = [13, 0]\nclass = CONFIRMED", fillcolor="#e58139"] ;
427 -> 437 ;
438 [label="gini = 0.0\nsamples = 1\nvalue = [0, 1]\nclass = NOT CONFIRMED", fillcolor="#399de5"] ;
406 -> 438 ;
439 [label="koi_prad <= 8.895\ngini = 0.433\nsamples = 275\nvalue = [188, 87]\nclass = CONFIRMED", fillcolor="#f1bb95"] ;
405 -> 439 ;
440 [label="koi_period <= 6.536\ngini = 0.483\nsamples = 211\nvalue = [125, 86]\nclass = CONFIRMED", fillcolor="#f7d8c1"] ;
439 -> 440 ;
441 [label="koi_impact_err2 <= -0.029\ngini = 0.111\nsamples = 34\nvalue = [32, 2]\nclass = CONFIRMED", fillcolor="#e78945"] ;
440 -> 441 ;
442 [label="dec <= 48.824\ngini = 0.059\nsamples = 33\nvalue = [32, 1]\nclass = CONFIRMED", fillcolor="#e6853f"] ;
441 -> 442 ;
443 [label="gini = 0.0\nsamples = 30\nvalue = [30, 0]\nclass = CONFIRMED", fillcolor="#e58139"] ;
442 -> 443 ;
444 [label="koi_slogg_err2 <= -0.092\ngini = 0.444\nsamples = 3\nvalue = [2, 1]\nclass = CONFIRMED", fillcolor="#f2c09c"] ;
442 -> 444 ;
445 [label="gini = 0.0\nsamples = 2\nvalue = [2, 0]\nclass = CONFIRMED", fillcolor="#e58139"] ;
444 -> 445 ;
446 [label="gini = 0.0\nsamples = 1\nvalue = [0, 1]\nclass = NOT CONFIRMED", fillcolor="#399de5"] ;
444 -> 446 ;
447 [label="gini = 0.0\nsamples = 1\nvalue = [0, 1]\nclass = NOT CONFIRMED", fillcolor="#399de5"] ;
441 -> 447 ;
448 [label="koi_time0bk_err1 <= 0.015\ngini = 0.499\nsamples = 177\nvalue = [93, 84]\nclass = CONFIRMED", fillcolor="#fcf3ec"] ;
440 -> 448 ;
449 [label="koi_steff_err2 <= -133.5\ngini = 0.49\nsamples = 128\nvalue = [55, 73]\nclass = NOT CONFIRMED", fillcolor="#cee7f9"] ;
448 -> 449 ;
450 [label="koi_steff_err1 <= 106.0\ngini = 0.245\nsamples = 14\nvalue = [12, 2]\nclass = CONFIRMED", fillcolor="#e9965a"] ;
449 -> 450 ;
451 [label="gini = 0.0\nsamples = 1\nvalue = [0, 1]\nclass = NOT CONFIRMED", fillcolor="#399de5"] ;
450 -> 451 ;
452 [label="koi_steff_err1 <= 121.5\ngini = 0.142\nsamples = 13\nvalue = [12, 1]\nclass = CONFIRMED", fillcolor="#e78c49"] ;
450 -> 452 ;
453 [label="gini = 0.0\nsamples = 12\nvalue = [12, 0]\nclass = CONFIRMED", fillcolor="#e58139"] ;
452 -> 453 ;
454 [label="gini = 0.0\nsamples = 1\nvalue = [0, 1]\nclass = NOT CONFIRMED", fillcolor="#399de5"] ;
452 -> 454 ;
455 [label="ra <= 290.559\ngini = 0.47\nsamples = 114\nvalue = [43, 71]\nclass = NOT CONFIRMED", fillcolor="#b1d8f5"] ;
449 -> 455 ;
456 [label="koi_insol_err2 <= -1.065\ngini = 0.335\nsamples = 47\nvalue = [10, 37]\nclass = NOT CONFIRMED", fillcolor="#6fb7ec"] ;
455 -> 456 ;
457 [label="koi_srad_err2 <= -0.612\ngini = 0.17\nsamples = 32\nvalue = [3, 29]\nclass = NOT CONFIRMED", fillcolor="#4da7e8"] ;
456 -> 457 ;
458 [label="gini = 0.0\nsamples = 2\nvalue = [2, 0]\nclass = CONFIRMED", fillcolor="#e58139"] ;
457 -> 458 ;
459 [label="koi_model_snr <= 12.85\ngini = 0.064\nsamples = 30\nvalue = [1, 29]\nclass = NOT CONFIRMED", fillcolor="#40a0e6"] ;
457 -> 459 ;
460 [label="koi_model_snr <= 12.65\ngini = 0.5\nsamples = 2\nvalue = [1, 1]\nclass = CONFIRMED", fillcolor="#ffffff"] ;
459 -> 460 ;
461 [label="gini = 0.0\nsamples = 1\nvalue = [0, 1]\nclass = NOT CONFIRMED", fillcolor="#399de5"] ;
460 -> 461 ;
462 [label="gini = 0.0\nsamples = 1\nvalue = [1, 0]\nclass = CONFIRMED", fillcolor="#e58139"] ;
460 -> 462 ;
463 [label="gini = 0.0\nsamples = 28\nvalue = [0, 28]\nclass = NOT CONFIRMED", fillcolor="#399de5"] ;
459 -> 463 ;
464 [label="koi_teq <= 294.5\ngini = 0.498\nsamples = 15\nvalue = [7, 8]\nclass = NOT CONFIRMED", fillcolor="#e6f3fc"] ;
456 -> 464 ;
465 [label="koi_srad_err2 <= -0.02\ngini = 0.198\nsamples = 9\nvalue = [1, 8]\nclass = NOT CONFIRMED", fillcolor="#52a9e8"] ;
464 -> 465 ;
466 [label="gini = 0.0\nsamples = 8\nvalue = [0, 8]\nclass = NOT CONFIRMED", fillcolor="#399de5"] ;
465 -> 466 ;
467 [label="gini = 0.0\nsamples = 1\nvalue = [1, 0]\nclass = CONFIRMED", fillcolor="#e58139"] ;
465 -> 467 ;
468 [label="gini = 0.0\nsamples = 6\nvalue = [6, 0]\nclass = CONFIRMED", fillcolor="#e58139"] ;
464 -> 468 ;
469 [label="koi_steff_err1 <= 101.5\ngini = 0.5\nsamples = 67\nvalue = [33, 34]\nclass = NOT CONFIRMED", fillcolor="#f9fcfe"] ;
455 -> 469 ;
470 [label="dec <= 42.14\ngini = 0.455\nsamples = 40\nvalue = [26, 14]\nclass = CONFIRMED", fillcolor="#f3c5a4"] ;
469 -> 470 ;
471 [label="koi_depth <= 1212.1\ngini = 0.208\nsamples = 17\nvalue = [15, 2]\nclass = CONFIRMED", fillcolor="#e89253"] ;
470 -> 471 ;
472 [label="koi_impact_err2 <= -0.655\ngini = 0.117\nsamples = 16\nvalue = [15, 1]\nclass = CONFIRMED", fillcolor="#e78946"] ;
471 -> 472 ;
473 [label="gini = 0.0\nsamples = 1\nvalue = [0, 1]\nclass = NOT CONFIRMED", fillcolor="#399de5"] ;
472 -> 473 ;
474 [label="gini = 0.0\nsamples = 15\nvalue = [15, 0]\nclass = CONFIRMED", fillcolor="#e58139"] ;
472 -> 474 ;
475 [label="gini = 0.0\nsamples = 1\nvalue = [0, 1]\nclass = NOT CONFIRMED", fillcolor="#399de5"] ;
471 -> 475 ;
476 [label="koi_model_snr <= 16.95\ngini = 0.499\nsamples = 23\nvalue = [11, 12]\nclass = NOT CONFIRMED", fillcolor="#eff7fd"] ;
470 -> 476 ;
477 [label="ra <= 291.178\ngini = 0.375\nsamples = 12\nvalue = [3, 9]\nclass = NOT CONFIRMED", fillcolor="#7bbeee"] ;
476 -> 477 ;
478 [label="gini = 0.0\nsamples = 2\nvalue = [2, 0]\nclass = CONFIRMED", fillcolor="#e58139"] ;
477 -> 478 ;
479 [label="koi_duration_err2 <= -0.454\ngini = 0.18\nsamples = 10\nvalue = [1, 9]\nclass = NOT CONFIRMED", fillcolor="#4fa8e8"] ;
477 -> 479 ;
480 [label="gini = 0.0\nsamples = 1\nvalue = [1, 0]\nclass = CONFIRMED", fillcolor="#e58139"] ;
479 -> 480 ;
481 [label="gini = 0.0\nsamples = 9\nvalue = [0, 9]\nclass = NOT CONFIRMED", fillcolor="#399de5"] ;
479 -> 481 ;
482 [label="koi_depth <= 1172.25\ngini = 0.397\nsamples = 11\nvalue = [8, 3]\nclass = CONFIRMED", fillcolor="#efb083"] ;
476 -> 482 ;
483 [label="koi_slogg_err1 <= 0.247\ngini = 0.198\nsamples = 9\nvalue = [8, 1]\nclass = CONFIRMED", fillcolor="#e89152"] ;
482 -> 483 ;
484 [label="gini = 0.0\nsamples = 8\nvalue = [8, 0]\nclass = CONFIRMED", fillcolor="#e58139"] ;
483 -> 484 ;
485 [label="gini = 0.0\nsamples = 1\nvalue = [0, 1]\nclass = NOT CONFIRMED", fillcolor="#399de5"] ;
483 -> 485 ;
486 [label="gini = 0.0\nsamples = 2\nvalue = [0, 2]\nclass = NOT CONFIRMED", fillcolor="#399de5"] ;
482 -> 486 ;
487 [label="koi_depth_err2 <= -78.35\ngini = 0.384\nsamples = 27\nvalue = [7, 20]\nclass = NOT CONFIRMED", fillcolor="#7ebfee"] ;
469 -> 487 ;
488 [label="gini = 0.0\nsamples = 2\nvalue = [2, 0]\nclass = CONFIRMED", fillcolor="#e58139"] ;
487 -> 488 ;
489 [label="koi_kepmag <= 12.969\ngini = 0.32\nsamples = 25\nvalue = [5, 20]\nclass = NOT CONFIRMED", fillcolor="#6ab6ec"] ;
487 -> 489 ;
490 [label="gini = 0.0\nsamples = 2\nvalue = [2, 0]\nclass = CONFIRMED", fillcolor="#e58139"] ;
489 -> 490 ;
491 [label="koi_time0bk <= 133.611\ngini = 0.227\nsamples = 23\nvalue = [3, 20]\nclass = NOT CONFIRMED", fillcolor="#57ace9"] ;
489 -> 491 ;
492 [label="gini = 0.0\nsamples = 1\nvalue = [1, 0]\nclass = CONFIRMED", fillcolor="#e58139"] ;
491 -> 492 ;
493 [label="koi_impact_err1 <= 30.372\ngini = 0.165\nsamples = 22\nvalue = [2, 20]\nclass = NOT CONFIRMED", fillcolor="#4da7e8"] ;
491 -> 493 ;
494 [label="ra <= 290.904\ngini = 0.091\nsamples = 21\nvalue = [1, 20]\nclass = NOT CONFIRMED", fillcolor="#43a2e6"] ;
493 -> 494 ;
495 [label="gini = 0.0\nsamples = 1\nvalue = [1, 0]\nclass = CONFIRMED", fillcolor="#e58139"] ;
494 -> 495 ;
496 [label="gini = 0.0\nsamples = 20\nvalue = [0, 20]\nclass = NOT CONFIRMED", fillcolor="#399de5"] ;
494 -> 496 ;
497 [label="gini = 0.0\nsamples = 1\nvalue = [1, 0]\nclass = CONFIRMED", fillcolor="#e58139"] ;
493 -> 497 ;
498 [label="koi_srad_err2 <= -0.209\ngini = 0.348\nsamples = 49\nvalue = [38, 11]\nclass = CONFIRMED", fillcolor="#eda572"] ;
448 -> 498 ;
499 [label="koi_kepmag <= 14.905\ngini = 0.497\nsamples = 24\nvalue = [13, 11]\nclass = CONFIRMED", fillcolor="#fbece1"] ;
498 -> 499 ;
500 [label="dec <= 48.11\ngini = 0.401\nsamples = 18\nvalue = [13, 5]\nclass = CONFIRMED", fillcolor="#efb185"] ;
499 -> 500 ;
501 [label="koi_period <= 21.144\ngini = 0.142\nsamples = 13\nvalue = [12, 1]\nclass = CONFIRMED", fillcolor="#e78c49"] ;
500 -> 501 ;
502 [label="dec <= 41.046\ngini = 0.5\nsamples = 2\nvalue = [1, 1]\nclass = CONFIRMED", fillcolor="#ffffff"] ;
501 -> 502 ;
503 [label="gini = 0.0\nsamples = 1\nvalue = [0, 1]\nclass = NOT CONFIRMED", fillcolor="#399de5"] ;
502 -> 503 ;
504 [label="gini = 0.0\nsamples = 1\nvalue = [1, 0]\nclass = CONFIRMED", fillcolor="#e58139"] ;
502 -> 504 ;
505 [label="gini = 0.0\nsamples = 11\nvalue = [11, 0]\nclass = CONFIRMED", fillcolor="#e58139"] ;
501 -> 505 ;
506 [label="koi_srad <= 3.32\ngini = 0.32\nsamples = 5\nvalue = [1, 4]\nclass = NOT CONFIRMED", fillcolor="#6ab6ec"] ;
500 -> 506 ;
507 [label="gini = 0.0\nsamples = 4\nvalue = [0, 4]\nclass = NOT CONFIRMED", fillcolor="#399de5"] ;
506 -> 507 ;
508 [label="gini = 0.0\nsamples = 1\nvalue = [1, 0]\nclass = CONFIRMED", fillcolor="#e58139"] ;
506 -> 508 ;
509 [label="gini = 0.0\nsamples = 6\nvalue = [0, 6]\nclass = NOT CONFIRMED", fillcolor="#399de5"] ;
499 -> 509 ;
510 [label="gini = 0.0\nsamples = 25\nvalue = [25, 0]\nclass = CONFIRMED", fillcolor="#e58139"] ;
498 -> 510 ;
511 [label="koi_prad_err1 <= 0.835\ngini = 0.031\nsamples = 64\nvalue = [63, 1]\nclass = CONFIRMED", fillcolor="#e5833c"] ;
439 -> 511 ;
512 [label="koi_depth <= 415.9\ngini = 0.375\nsamples = 4\nvalue = [3, 1]\nclass = CONFIRMED", fillcolor="#eeab7b"] ;
511 -> 512 ;
513 [label="gini = 0.0\nsamples = 1\nvalue = [0, 1]\nclass = NOT CONFIRMED", fillcolor="#399de5"] ;
512 -> 513 ;
514 [label="gini = 0.0\nsamples = 3\nvalue = [3, 0]\nclass = CONFIRMED", fillcolor="#e58139"] ;
512 -> 514 ;
515 [label="gini = 0.0\nsamples = 60\nvalue = [60, 0]\nclass = CONFIRMED", fillcolor="#e58139"] ;
511 -> 515 ;
516 [label="koi_prad_err2 <= -1.355\ngini = 0.217\nsamples = 4357\nvalue = [3817, 540]\nclass = CONFIRMED", fillcolor="#e99355"] ;
0 -> 516 [labeldistance=2.5, labelangle=-45, headlabel="False"] ;
517 [label="koi_prad <= 14.45\ngini = 0.025\nsamples = 1529\nvalue = [1510, 19]\nclass = CONFIRMED", fillcolor="#e5833b"] ;
516 -> 517 ;
518 [label="koi_steff <= 5017.0\ngini = 0.123\nsamples = 197\nvalue = [184, 13]\nclass = CONFIRMED", fillcolor="#e78a47"] ;
517 -> 518 ;
519 [label="koi_prad_err1 <= 1.59\ngini = 0.444\nsamples = 6\nvalue = [2, 4]\nclass = NOT CONFIRMED", fillcolor="#9ccef2"] ;
518 -> 519 ;
520 [label="gini = 0.0\nsamples = 2\nvalue = [2, 0]\nclass = CONFIRMED", fillcolor="#e58139"] ;
519 -> 520 ;
521 [label="gini = 0.0\nsamples = 4\nvalue = [0, 4]\nclass = NOT CONFIRMED", fillcolor="#399de5"] ;
519 -> 521 ;
522 [label="koi_duration_err1 <= 0.01\ngini = 0.09\nsamples = 191\nvalue = [182, 9]\nclass = CONFIRMED", fillcolor="#e68743"] ;
518 -> 522 ;
523 [label="gini = 0.0\nsamples = 2\nvalue = [0, 2]\nclass = NOT CONFIRMED", fillcolor="#399de5"] ;
522 -> 523 ;
524 [label="koi_depth <= 759.9\ngini = 0.071\nsamples = 189\nvalue = [182, 7]\nclass = CONFIRMED", fillcolor="#e68641"] ;
522 -> 524 ;
525 [label="gini = 0.0\nsamples = 133\nvalue = [133, 0]\nclass = CONFIRMED", fillcolor="#e58139"] ;
524 -> 525 ;
526 [label="koi_impact_err2 <= -0.089\ngini = 0.219\nsamples = 56\nvalue = [49, 7]\nclass = CONFIRMED", fillcolor="#e99355"] ;
524 -> 526 ;
527 [label="dec <= 43.889\ngini = 0.5\nsamples = 10\nvalue = [5, 5]\nclass = CONFIRMED", fillcolor="#ffffff"] ;
526 -> 527 ;
528 [label="gini = 0.0\nsamples = 5\nvalue = [0, 5]\nclass = NOT CONFIRMED", fillcolor="#399de5"] ;
527 -> 528 ;
529 [label="gini = 0.0\nsamples = 5\nvalue = [5, 0]\nclass = CONFIRMED", fillcolor="#e58139"] ;
527 -> 529 ;
530 [label="koi_slogg_err1 <= 0.053\ngini = 0.083\nsamples = 46\nvalue = [44, 2]\nclass = CONFIRMED", fillcolor="#e68742"] ;
526 -> 530 ;
531 [label="gini = 0.0\nsamples = 1\nvalue = [0, 1]\nclass = NOT CONFIRMED", fillcolor="#399de5"] ;
530 -> 531 ;
532 [label="koi_tce_plnt_num <= 1.5\ngini = 0.043\nsamples = 45\nvalue = [44, 1]\nclass = CONFIRMED", fillcolor="#e6843d"] ;
530 -> 532 ;
533 [label="gini = 0.0\nsamples = 43\nvalue = [43, 0]\nclass = CONFIRMED", fillcolor="#e58139"] ;
532 -> 533 ;
534 [label="koi_depth_err1 <= 12.1\ngini = 0.5\nsamples = 2\nvalue = [1, 1]\nclass = CONFIRMED", fillcolor="#ffffff"] ;
532 -> 534 ;
535 [label="gini = 0.0\nsamples = 1\nvalue = [1, 0]\nclass = CONFIRMED", fillcolor="#e58139"] ;
534 -> 535 ;
536 [label="gini = 0.0\nsamples = 1\nvalue = [0, 1]\nclass = NOT CONFIRMED", fillcolor="#399de5"] ;
534 -> 536 ;
537 [label="koi_time0bk <= 121.014\ngini = 0.009\nsamples = 1332\nvalue = [1326, 6]\nclass = CONFIRMED", fillcolor="#e5823a"] ;
517 -> 537 ;
538 [label="gini = 0.0\nsamples = 1\nvalue = [0, 1]\nclass = NOT CONFIRMED", fillcolor="#399de5"] ;
537 -> 538 ;
539 [label="koi_steff_err1 <= 299.5\ngini = 0.007\nsamples = 1331\nvalue = [1326, 5]\nclass = CONFIRMED", fillcolor="#e5813a"] ;
537 -> 539 ;
540 [label="dec <= 51.462\ngini = 0.005\nsamples = 1320\nvalue = [1317, 3]\nclass = CONFIRMED", fillcolor="#e58139"] ;
539 -> 540 ;
541 [label="koi_tce_plnt_num <= 2.5\ngini = 0.003\nsamples = 1316\nvalue = [1314, 2]\nclass = CONFIRMED", fillcolor="#e58139"] ;
540 -> 541 ;
542 [label="koi_insol_err2 <= -954.075\ngini = 0.002\nsamples = 1305\nvalue = [1304, 1]\nclass = CONFIRMED", fillcolor="#e58139"] ;
541 -> 542 ;
543 [label="koi_insol_err2 <= -961.665\ngini = 0.006\nsamples = 323\nvalue = [322, 1]\nclass = CONFIRMED", fillcolor="#e5813a"] ;
542 -> 543 ;
544 [label="gini = 0.0\nsamples = 322\nvalue = [322, 0]\nclass = CONFIRMED", fillcolor="#e58139"] ;
543 -> 544 ;
545 [label="gini = 0.0\nsamples = 1\nvalue = [0, 1]\nclass = NOT CONFIRMED", fillcolor="#399de5"] ;
543 -> 545 ;
546 [label="gini = 0.0\nsamples = 982\nvalue = [982, 0]\nclass = CONFIRMED", fillcolor="#e58139"] ;
542 -> 546 ;
547 [label="koi_impact_err1 <= 57.115\ngini = 0.165\nsamples = 11\nvalue = [10, 1]\nclass = CONFIRMED", fillcolor="#e88e4d"] ;
541 -> 547 ;
548 [label="gini = 0.0\nsamples = 10\nvalue = [10, 0]\nclass = CONFIRMED", fillcolor="#e58139"] ;
547 -> 548 ;
549 [label="gini = 0.0\nsamples = 1\nvalue = [0, 1]\nclass = NOT CONFIRMED", fillcolor="#399de5"] ;
547 -> 549 ;
550 [label="koi_srad_err1 <= 0.154\ngini = 0.375\nsamples = 4\nvalue = [3, 1]\nclass = CONFIRMED", fillcolor="#eeab7b"] ;
540 -> 550 ;
551 [label="gini = 0.0\nsamples = 1\nvalue = [0, 1]\nclass = NOT CONFIRMED", fillcolor="#399de5"] ;
550 -> 551 ;
552 [label="gini = 0.0\nsamples = 3\nvalue = [3, 0]\nclass = CONFIRMED", fillcolor="#e58139"] ;
550 -> 552 ;
553 [label="koi_impact <= 0.393\ngini = 0.298\nsamples = 11\nvalue = [9, 2]\nclass = CONFIRMED", fillcolor="#eb9d65"] ;
539 -> 553 ;
554 [label="gini = 0.0\nsamples = 2\nvalue = [0, 2]\nclass = NOT CONFIRMED", fillcolor="#399de5"] ;
553 -> 554 ;
555 [label="gini = 0.0\nsamples = 9\nvalue = [9, 0]\nclass = CONFIRMED", fillcolor="#e58139"] ;
553 -> 555 ;
556 [label="koi_duration_err1 <= 0.202\ngini = 0.301\nsamples = 2828\nvalue = [2307, 521]\nclass = CONFIRMED", fillcolor="#eb9d66"] ;
516 -> 556 ;
557 [label="koi_period <= 2.504\ngini = 0.458\nsamples = 1260\nvalue = [812, 448]\nclass = CONFIRMED", fillcolor="#f3c7a6"] ;
556 -> 557 ;
558 [label="koi_duration_err1 <= 0.09\ngini = 0.182\nsamples = 435\nvalue = [391, 44]\nclass = CONFIRMED", fillcolor="#e88f4f"] ;
557 -> 558 ;
559 [label="koi_insol_err1 <= 1409.735\ngini = 0.301\nsamples = 184\nvalue = [150, 34]\nclass = CONFIRMED", fillcolor="#eb9e66"] ;
558 -> 559 ;
560 [label="dec <= 43.206\ngini = 0.436\nsamples = 84\nvalue = [57, 27]\nclass = CONFIRMED", fillcolor="#f1bd97"] ;
559 -> 560 ;
561 [label="koi_kepmag <= 15.822\ngini = 0.157\nsamples = 35\nvalue = [32, 3]\nclass = CONFIRMED", fillcolor="#e78d4c"] ;
560 -> 561 ;
562 [label="koi_prad_err2 <= -1.275\ngini = 0.059\nsamples = 33\nvalue = [32, 1]\nclass = CONFIRMED", fillcolor="#e6853f"] ;
561 -> 562 ;
563 [label="gini = 0.0\nsamples = 1\nvalue = [0, 1]\nclass = NOT CONFIRMED", fillcolor="#399de5"] ;
562 -> 563 ;
564 [label="gini = 0.0\nsamples = 32\nvalue = [32, 0]\nclass = CONFIRMED", fillcolor="#e58139"] ;
562 -> 564 ;
565 [label="gini = 0.0\nsamples = 2\nvalue = [0, 2]\nclass = NOT CONFIRMED", fillcolor="#399de5"] ;
561 -> 565 ;
566 [label="koi_impact_err2 <= -0.486\ngini = 0.5\nsamples = 49\nvalue = [25, 24]\nclass = CONFIRMED", fillcolor="#fefaf7"] ;
560 -> 566 ;
567 [label="gini = 0.0\nsamples = 9\nvalue = [0, 9]\nclass = NOT CONFIRMED", fillcolor="#399de5"] ;
566 -> 567 ;
568 [label="koi_impact <= 0.275\ngini = 0.469\nsamples = 40\nvalue = [25, 15]\nclass = CONFIRMED", fillcolor="#f5cdb0"] ;
566 -> 568 ;
569 [label="koi_duration <= 1.071\ngini = 0.375\nsamples = 16\nvalue = [4, 12]\nclass = NOT CONFIRMED", fillcolor="#7bbeee"] ;
568 -> 569 ;
570 [label="koi_slogg_err1 <= 0.075\ngini = 0.32\nsamples = 5\nvalue = [4, 1]\nclass = CONFIRMED", fillcolor="#eca06a"] ;
569 -> 570 ;
571 [label="gini = 0.0\nsamples = 4\nvalue = [4, 0]\nclass = CONFIRMED", fillcolor="#e58139"] ;
570 -> 571 ;
572 [label="gini = 0.0\nsamples = 1\nvalue = [0, 1]\nclass = NOT CONFIRMED", fillcolor="#399de5"] ;
570 -> 572 ;
573 [label="gini = 0.0\nsamples = 11\nvalue = [0, 11]\nclass = NOT CONFIRMED", fillcolor="#399de5"] ;
569 -> 573 ;
574 [label="koi_model_snr <= 21.6\ngini = 0.219\nsamples = 24\nvalue = [21, 3]\nclass = CONFIRMED", fillcolor="#e99355"] ;
568 -> 574 ;
575 [label="dec <= 50.023\ngini = 0.375\nsamples = 4\nvalue = [1, 3]\nclass = NOT CONFIRMED", fillcolor="#7bbeee"] ;
574 -> 575 ;
576 [label="gini = 0.0\nsamples = 3\nvalue = [0, 3]\nclass = NOT CONFIRMED", fillcolor="#399de5"] ;
575 -> 576 ;
577 [label="gini = 0.0\nsamples = 1\nvalue = [1, 0]\nclass = CONFIRMED", fillcolor="#e58139"] ;
575 -> 577 ;
578 [label="gini = 0.0\nsamples = 20\nvalue = [20, 0]\nclass = CONFIRMED", fillcolor="#e58139"] ;
574 -> 578 ;
579 [label="koi_steff_err2 <= -137.0\ngini = 0.13\nsamples = 100\nvalue = [93, 7]\nclass = CONFIRMED", fillcolor="#e78a48"] ;
559 -> 579 ;
580 [label="koi_steff <= 5362.5\ngini = 0.098\nsamples = 97\nvalue = [92, 5]\nclass = CONFIRMED", fillcolor="#e68844"] ;
579 -> 580 ;
581 [label="koi_teq <= 1880.0\ngini = 0.444\nsamples = 9\nvalue = [6, 3]\nclass = CONFIRMED", fillcolor="#f2c09c"] ;
580 -> 581 ;
582 [label="gini = 0.0\nsamples = 3\nvalue = [0, 3]\nclass = NOT CONFIRMED", fillcolor="#399de5"] ;
581 -> 582 ;
583 [label="gini = 0.0\nsamples = 6\nvalue = [6, 0]\nclass = CONFIRMED", fillcolor="#e58139"] ;
581 -> 583 ;
584 [label="koi_steff <= 7118.5\ngini = 0.044\nsamples = 88\nvalue = [86, 2]\nclass = CONFIRMED", fillcolor="#e6843e"] ;
580 -> 584 ;
585 [label="ra <= 285.346\ngini = 0.023\nsamples = 86\nvalue = [85, 1]\nclass = CONFIRMED", fillcolor="#e5823b"] ;
584 -> 585 ;
586 [label="koi_duration_err1 <= 0.061\ngini = 0.245\nsamples = 7\nvalue = [6, 1]\nclass = CONFIRMED", fillcolor="#e9965a"] ;
585 -> 586 ;
587 [label="gini = 0.0\nsamples = 6\nvalue = [6, 0]\nclass = CONFIRMED", fillcolor="#e58139"] ;
586 -> 587 ;
588 [label="gini = 0.0\nsamples = 1\nvalue = [0, 1]\nclass = NOT CONFIRMED", fillcolor="#399de5"] ;
586 -> 588 ;
589 [label="gini = 0.0\nsamples = 79\nvalue = [79, 0]\nclass = CONFIRMED", fillcolor="#e58139"] ;
585 -> 589 ;
590 [label="koi_depth_err1 <= 4.75\ngini = 0.5\nsamples = 2\nvalue = [1, 1]\nclass = CONFIRMED", fillcolor="#ffffff"] ;
584 -> 590 ;
591 [label="gini = 0.0\nsamples = 1\nvalue = [1, 0]\nclass = CONFIRMED", fillcolor="#e58139"] ;
590 -> 591 ;
592 [label="gini = 0.0\nsamples = 1\nvalue = [0, 1]\nclass = NOT CONFIRMED", fillcolor="#399de5"] ;
590 -> 592 ;
593 [label="ra <= 294.978\ngini = 0.444\nsamples = 3\nvalue = [1, 2]\nclass = NOT CONFIRMED", fillcolor="#9ccef2"] ;
579 -> 593 ;
594 [label="gini = 0.0\nsamples = 2\nvalue = [0, 2]\nclass = NOT CONFIRMED", fillcolor="#399de5"] ;
593 -> 594 ;
595 [label="gini = 0.0\nsamples = 1\nvalue = [1, 0]\nclass = CONFIRMED", fillcolor="#e58139"] ;
593 -> 595 ;
596 [label="koi_time0bk <= 132.23\ngini = 0.077\nsamples = 251\nvalue = [241, 10]\nclass = CONFIRMED", fillcolor="#e68641"] ;
558 -> 596 ;
597 [label="koi_period <= 2.199\ngini = 0.024\nsamples = 166\nvalue = [164, 2]\nclass = CONFIRMED", fillcolor="#e5833b"] ;
596 -> 597 ;
598 [label="dec <= 39.274\ngini = 0.012\nsamples = 163\nvalue = [162, 1]\nclass = CONFIRMED", fillcolor="#e5823a"] ;
597 -> 598 ;
599 [label="ra <= 285.931\ngini = 0.153\nsamples = 12\nvalue = [11, 1]\nclass = CONFIRMED", fillcolor="#e78c4b"] ;
598 -> 599 ;
600 [label="gini = 0.0\nsamples = 1\nvalue = [0, 1]\nclass = NOT CONFIRMED", fillcolor="#399de5"] ;
599 -> 600 ;
601 [label="gini = 0.0\nsamples = 11\nvalue = [11, 0]\nclass = CONFIRMED", fillcolor="#e58139"] ;
599 -> 601 ;
602 [label="gini = 0.0\nsamples = 151\nvalue = [151, 0]\nclass = CONFIRMED", fillcolor="#e58139"] ;
598 -> 602 ;
603 [label="koi_prad_err1 <= 0.265\ngini = 0.444\nsamples = 3\nvalue = [2, 1]\nclass = CONFIRMED", fillcolor="#f2c09c"] ;
597 -> 603 ;
604 [label="gini = 0.0\nsamples = 1\nvalue = [0, 1]\nclass = NOT CONFIRMED", fillcolor="#399de5"] ;
603 -> 604 ;
605 [label="gini = 0.0\nsamples = 2\nvalue = [2, 0]\nclass = CONFIRMED", fillcolor="#e58139"] ;
603 -> 605 ;
606 [label="koi_time0bk <= 132.242\ngini = 0.171\nsamples = 85\nvalue = [77, 8]\nclass = CONFIRMED", fillcolor="#e88e4e"] ;
596 -> 606 ;
607 [label="gini = 0.0\nsamples = 1\nvalue = [0, 1]\nclass = NOT CONFIRMED", fillcolor="#399de5"] ;
606 -> 607 ;
608 [label="koi_impact <= 0.142\ngini = 0.153\nsamples = 84\nvalue = [77, 7]\nclass = CONFIRMED", fillcolor="#e78c4b"] ;
606 -> 608 ;
609 [label="koi_insol <= 388.68\ngini = 0.391\nsamples = 15\nvalue = [11, 4]\nclass = CONFIRMED", fillcolor="#eeaf81"] ;
608 -> 609 ;
610 [label="gini = 0.0\nsamples = 2\nvalue = [0, 2]\nclass = NOT CONFIRMED", fillcolor="#399de5"] ;
609 -> 610 ;
611 [label="koi_impact_err1 <= 0.396\ngini = 0.26\nsamples = 13\nvalue = [11, 2]\nclass = CONFIRMED", fillcolor="#ea985d"] ;
609 -> 611 ;
612 [label="koi_duration_err1 <= 0.121\ngini = 0.444\nsamples = 3\nvalue = [1, 2]\nclass = NOT CONFIRMED", fillcolor="#9ccef2"] ;
611 -> 612 ;
613 [label="gini = 0.0\nsamples = 1\nvalue = [1, 0]\nclass = CONFIRMED", fillcolor="#e58139"] ;
612 -> 613 ;
614 [label="gini = 0.0\nsamples = 2\nvalue = [0, 2]\nclass = NOT CONFIRMED", fillcolor="#399de5"] ;
612 -> 614 ;
615 [label="gini = 0.0\nsamples = 10\nvalue = [10, 0]\nclass = CONFIRMED", fillcolor="#e58139"] ;
611 -> 615 ;
616 [label="koi_time0bk <= 132.293\ngini = 0.083\nsamples = 69\nvalue = [66, 3]\nclass = CONFIRMED", fillcolor="#e68742"] ;
608 -> 616 ;
617 [label="koi_srad <= 0.965\ngini = 0.408\nsamples = 7\nvalue = [5, 2]\nclass = CONFIRMED", fillcolor="#efb388"] ;
616 -> 617 ;
618 [label="gini = 0.0\nsamples = 5\nvalue = [5, 0]\nclass = CONFIRMED", fillcolor="#e58139"] ;
617 -> 618 ;
619 [label="gini = 0.0\nsamples = 2\nvalue = [0, 2]\nclass = NOT CONFIRMED", fillcolor="#399de5"] ;
617 -> 619 ;
620 [label="koi_slogg_err1 <= 0.034\ngini = 0.032\nsamples = 62\nvalue = [61, 1]\nclass = CONFIRMED", fillcolor="#e5833c"] ;
616 -> 620 ;
621 [label="koi_impact_err2 <= -0.475\ngini = 0.375\nsamples = 4\nvalue = [3, 1]\nclass = CONFIRMED", fillcolor="#eeab7b"] ;
620 -> 621 ;
622 [label="gini = 0.0\nsamples = 1\nvalue = [0, 1]\nclass = NOT CONFIRMED", fillcolor="#399de5"] ;
621 -> 622 ;
623 [label="gini = 0.0\nsamples = 3\nvalue = [3, 0]\nclass = CONFIRMED", fillcolor="#e58139"] ;
621 -> 623 ;
624 [label="gini = 0.0\nsamples = 58\nvalue = [58, 0]\nclass = CONFIRMED", fillcolor="#e58139"] ;
620 -> 624 ;
625 [label="koi_model_snr <= 13.95\ngini = 0.5\nsamples = 825\nvalue = [421, 404]\nclass = CONFIRMED", fillcolor="#fefaf7"] ;
557 -> 625 ;
626 [label="koi_slogg_err1 <= 0.031\ngini = 0.173\nsamples = 94\nvalue = [85, 9]\nclass = CONFIRMED", fillcolor="#e88e4e"] ;
625 -> 626 ;
627 [label="koi_slogg_err2 <= -0.074\ngini = 0.463\nsamples = 11\nvalue = [7, 4]\nclass = CONFIRMED", fillcolor="#f4c9aa"] ;
626 -> 627 ;
628 [label="koi_srad <= 0.828\ngini = 0.32\nsamples = 5\nvalue = [1, 4]\nclass = NOT CONFIRMED", fillcolor="#6ab6ec"] ;
627 -> 628 ;
629 [label="gini = 0.0\nsamples = 4\nvalue = [0, 4]\nclass = NOT CONFIRMED", fillcolor="#399de5"] ;
628 -> 629 ;
630 [label="gini = 0.0\nsamples = 1\nvalue = [1, 0]\nclass = CONFIRMED", fillcolor="#e58139"] ;
628 -> 630 ;
631 [label="gini = 0.0\nsamples = 6\nvalue = [6, 0]\nclass = CONFIRMED", fillcolor="#e58139"] ;
627 -> 631 ;
632 [label="koi_slogg_err1 <= 0.392\ngini = 0.113\nsamples = 83\nvalue = [78, 5]\nclass = CONFIRMED", fillcolor="#e78946"] ;
626 -> 632 ;
633 [label="koi_slogg_err2 <= -0.216\ngini = 0.093\nsamples = 82\nvalue = [78, 4]\nclass = CONFIRMED", fillcolor="#e68743"] ;
632 -> 633 ;
634 [label="koi_depth_err2 <= -14.75\ngini = 0.375\nsamples = 8\nvalue = [6, 2]\nclass = CONFIRMED", fillcolor="#eeab7b"] ;
633 -> 634 ;
635 [label="gini = 0.0\nsamples = 6\nvalue = [6, 0]\nclass = CONFIRMED", fillcolor="#e58139"] ;
634 -> 635 ;
636 [label="gini = 0.0\nsamples = 2\nvalue = [0, 2]\nclass = NOT CONFIRMED", fillcolor="#399de5"] ;
634 -> 636 ;
637 [label="koi_impact <= 0.553\ngini = 0.053\nsamples = 74\nvalue = [72, 2]\nclass = CONFIRMED", fillcolor="#e6843e"] ;
633 -> 637 ;
638 [label="gini = 0.0\nsamples = 55\nvalue = [55, 0]\nclass = CONFIRMED", fillcolor="#e58139"] ;
637 -> 638 ;
639 [label="koi_impact_err2 <= -0.4\ngini = 0.188\nsamples = 19\nvalue = [17, 2]\nclass = CONFIRMED", fillcolor="#e89050"] ;
637 -> 639 ;
640 [label="gini = 0.0\nsamples = 16\nvalue = [16, 0]\nclass = CONFIRMED", fillcolor="#e58139"] ;
639 -> 640 ;
641 [label="koi_prad <= 2.02\ngini = 0.444\nsamples = 3\nvalue = [1, 2]\nclass = NOT CONFIRMED", fillcolor="#9ccef2"] ;
639 -> 641 ;
642 [label="gini = 0.0\nsamples = 2\nvalue = [0, 2]\nclass = NOT CONFIRMED", fillcolor="#399de5"] ;
641 -> 642 ;
643 [label="gini = 0.0\nsamples = 1\nvalue = [1, 0]\nclass = CONFIRMED", fillcolor="#e58139"] ;
641 -> 643 ;
644 [label="gini = 0.0\nsamples = 1\nvalue = [0, 1]\nclass = NOT CONFIRMED", fillcolor="#399de5"] ;
632 -> 644 ;
645 [label="koi_prad <= 4.185\ngini = 0.497\nsamples = 731\nvalue = [336, 395]\nclass = NOT CONFIRMED", fillcolor="#e1f0fb"] ;
625 -> 645 ;
646 [label="ra <= 297.517\ngini = 0.478\nsamples = 595\nvalue = [235, 360]\nclass = NOT CONFIRMED", fillcolor="#baddf6"] ;
645 -> 646 ;
647 [label="koi_duration <= 1.547\ngini = 0.455\nsamples = 526\nvalue = [184, 342]\nclass = NOT CONFIRMED", fillcolor="#a4d2f3"] ;
646 -> 647 ;
648 [label="koi_steff_err2 <= -146.5\ngini = 0.326\nsamples = 39\nvalue = [31, 8]\nclass = CONFIRMED", fillcolor="#eca26c"] ;
647 -> 648 ;
649 [label="koi_impact <= 0.216\ngini = 0.128\nsamples = 29\nvalue = [27, 2]\nclass = CONFIRMED", fillcolor="#e78a48"] ;
648 -> 649 ;
650 [label="ra <= 288.214\ngini = 0.408\nsamples = 7\nvalue = [5, 2]\nclass = CONFIRMED", fillcolor="#efb388"] ;
649 -> 650 ;
651 [label="gini = 0.0\nsamples = 2\nvalue = [0, 2]\nclass = NOT CONFIRMED", fillcolor="#399de5"] ;
650 -> 651 ;
652 [label="gini = 0.0\nsamples = 5\nvalue = [5, 0]\nclass = CONFIRMED", fillcolor="#e58139"] ;
650 -> 652 ;
653 [label="gini = 0.0\nsamples = 22\nvalue = [22, 0]\nclass = CONFIRMED", fillcolor="#e58139"] ;
649 -> 653 ;
654 [label="koi_slogg_err2 <= -0.065\ngini = 0.48\nsamples = 10\nvalue = [4, 6]\nclass = NOT CONFIRMED", fillcolor="#bddef6"] ;
648 -> 654 ;
655 [label="gini = 0.0\nsamples = 5\nvalue = [0, 5]\nclass = NOT CONFIRMED", fillcolor="#399de5"] ;
654 -> 655 ;
656 [label="koi_period_err2 <= -0.0\ngini = 0.32\nsamples = 5\nvalue = [4, 1]\nclass = CONFIRMED", fillcolor="#eca06a"] ;
654 -> 656 ;
657 [label="gini = 0.0\nsamples = 4\nvalue = [4, 0]\nclass = CONFIRMED", fillcolor="#e58139"] ;
656 -> 657 ;
658 [label="gini = 0.0\nsamples = 1\nvalue = [0, 1]\nclass = NOT CONFIRMED", fillcolor="#399de5"] ;
656 -> 658 ;
659 [label="koi_time0bk_err2 <= -0.003\ngini = 0.431\nsamples = 487\nvalue = [153, 334]\nclass = NOT CONFIRMED", fillcolor="#94caf1"] ;
647 -> 659 ;
660 [label="koi_period_err1 <= 0.0\ngini = 0.482\nsamples = 282\nvalue = [114, 168]\nclass = NOT CONFIRMED", fillcolor="#bfe0f7"] ;
659 -> 660 ;
661 [label="koi_prad <= 0.885\ngini = 0.48\nsamples = 75\nvalue = [45, 30]\nclass = CONFIRMED", fillcolor="#f6d5bd"] ;
660 -> 661 ;
662 [label="gini = 0.0\nsamples = 8\nvalue = [0, 8]\nclass = NOT CONFIRMED", fillcolor="#399de5"] ;
661 -> 662 ;
663 [label="koi_slogg <= 3.964\ngini = 0.441\nsamples = 67\nvalue = [45, 22]\nclass = CONFIRMED", fillcolor="#f2bf9a"] ;
661 -> 663 ;
664 [label="gini = 0.0\nsamples = 5\nvalue = [0, 5]\nclass = NOT CONFIRMED", fillcolor="#399de5"] ;
663 -> 664 ;
665 [label="koi_steff <= 5804.0\ngini = 0.398\nsamples = 62\nvalue = [45, 17]\nclass = CONFIRMED", fillcolor="#efb184"] ;
663 -> 665 ;
666 [label="koi_steff_err2 <= -154.5\ngini = 0.208\nsamples = 34\nvalue = [30, 4]\nclass = CONFIRMED", fillcolor="#e89253"] ;
665 -> 666 ;
667 [label="gini = 0.0\nsamples = 22\nvalue = [22, 0]\nclass = CONFIRMED", fillcolor="#e58139"] ;
666 -> 667 ;
668 [label="koi_steff_err2 <= -150.5\ngini = 0.444\nsamples = 12\nvalue = [8, 4]\nclass = CONFIRMED", fillcolor="#f2c09c"] ;
666 -> 668 ;
669 [label="koi_duration <= 3.141\ngini = 0.444\nsamples = 6\nvalue = [2, 4]\nclass = NOT CONFIRMED", fillcolor="#9ccef2"] ;
668 -> 669 ;
670 [label="gini = 0.0\nsamples = 4\nvalue = [0, 4]\nclass = NOT CONFIRMED", fillcolor="#399de5"] ;
669 -> 670 ;
671 [label="gini = 0.0\nsamples = 2\nvalue = [2, 0]\nclass = CONFIRMED", fillcolor="#e58139"] ;
669 -> 671 ;
672 [label="gini = 0.0\nsamples = 6\nvalue = [6, 0]\nclass = CONFIRMED", fillcolor="#e58139"] ;
668 -> 672 ;
673 [label="koi_steff <= 6247.0\ngini = 0.497\nsamples = 28\nvalue = [15, 13]\nclass = CONFIRMED", fillcolor="#fceee5"] ;
665 -> 673 ;
674 [label="koi_period_err2 <= -0.0\ngini = 0.401\nsamples = 18\nvalue = [5, 13]\nclass = NOT CONFIRMED", fillcolor="#85c3ef"] ;
673 -> 674 ;
675 [label="dec <= 43.283\ngini = 0.494\nsamples = 9\nvalue = [5, 4]\nclass = CONFIRMED", fillcolor="#fae6d7"] ;
674 -> 675 ;
676 [label="gini = 0.0\nsamples = 4\nvalue = [4, 0]\nclass = CONFIRMED", fillcolor="#e58139"] ;
675 -> 676 ;
677 [label="koi_prad_err2 <= -0.14\ngini = 0.32\nsamples = 5\nvalue = [1, 4]\nclass = NOT CONFIRMED", fillcolor="#6ab6ec"] ;
675 -> 677 ;
678 [label="gini = 0.0\nsamples = 4\nvalue = [0, 4]\nclass = NOT CONFIRMED", fillcolor="#399de5"] ;
677 -> 678 ;
679 [label="gini = 0.0\nsamples = 1\nvalue = [1, 0]\nclass = CONFIRMED", fillcolor="#e58139"] ;
677 -> 679 ;
680 [label="gini = 0.0\nsamples = 9\nvalue = [0, 9]\nclass = NOT CONFIRMED", fillcolor="#399de5"] ;
674 -> 680 ;
681 [label="gini = 0.0\nsamples = 10\nvalue = [10, 0]\nclass = CONFIRMED", fillcolor="#e58139"] ;
673 -> 681 ;
682 [label="koi_model_snr <= 18.95\ngini = 0.444\nsamples = 207\nvalue = [69, 138]\nclass = NOT CONFIRMED", fillcolor="#9ccef2"] ;
660 -> 682 ;
683 [label="koi_time0bk_err2 <= -0.006\ngini = 0.5\nsamples = 70\nvalue = [34, 36]\nclass = NOT CONFIRMED", fillcolor="#f4fafe"] ;
682 -> 683 ;
684 [label="koi_slogg_err1 <= 0.053\ngini = 0.384\nsamples = 27\nvalue = [7, 20]\nclass = NOT CONFIRMED", fillcolor="#7ebfee"] ;
683 -> 684 ;
685 [label="koi_model_snr <= 16.15\ngini = 0.48\nsamples = 10\nvalue = [6, 4]\nclass = CONFIRMED", fillcolor="#f6d5bd"] ;
684 -> 685 ;
686 [label="koi_slogg_err1 <= 0.032\ngini = 0.32\nsamples = 5\nvalue = [1, 4]\nclass = NOT CONFIRMED", fillcolor="#6ab6ec"] ;
685 -> 686 ;
687 [label="gini = 0.0\nsamples = 1\nvalue = [1, 0]\nclass = CONFIRMED", fillcolor="#e58139"] ;
686 -> 687 ;
688 [label="gini = 0.0\nsamples = 4\nvalue = [0, 4]\nclass = NOT CONFIRMED", fillcolor="#399de5"] ;
686 -> 688 ;
689 [label="gini = 0.0\nsamples = 5\nvalue = [5, 0]\nclass = CONFIRMED", fillcolor="#e58139"] ;
685 -> 689 ;
690 [label="ra <= 296.632\ngini = 0.111\nsamples = 17\nvalue = [1, 16]\nclass = NOT CONFIRMED", fillcolor="#45a3e7"] ;
684 -> 690 ;
691 [label="gini = 0.0\nsamples = 16\nvalue = [0, 16]\nclass = NOT CONFIRMED", fillcolor="#399de5"] ;
690 -> 691 ;
692 [label="gini = 0.0\nsamples = 1\nvalue = [1, 0]\nclass = CONFIRMED", fillcolor="#e58139"] ;
690 -> 692 ;
693 [label="koi_steff <= 5362.0\ngini = 0.467\nsamples = 43\nvalue = [27, 16]\nclass = CONFIRMED", fillcolor="#f4ccae"] ;
683 -> 693 ;
694 [label="koi_model_snr <= 18.15\ngini = 0.298\nsamples = 11\nvalue = [2, 9]\nclass = NOT CONFIRMED", fillcolor="#65b3eb"] ;
693 -> 694 ;
695 [label="ra <= 296.51\ngini = 0.18\nsamples = 10\nvalue = [1, 9]\nclass = NOT CONFIRMED", fillcolor="#4fa8e8"] ;
694 -> 695 ;
696 [label="gini = 0.0\nsamples = 9\nvalue = [0, 9]\nclass = NOT CONFIRMED", fillcolor="#399de5"] ;
695 -> 696 ;
697 [label="gini = 0.0\nsamples = 1\nvalue = [1, 0]\nclass = CONFIRMED", fillcolor="#e58139"] ;
695 -> 697 ;
698 [label="gini = 0.0\nsamples = 1\nvalue = [1, 0]\nclass = CONFIRMED", fillcolor="#e58139"] ;
694 -> 698 ;
699 [label="koi_insol_err1 <= 97.22\ngini = 0.342\nsamples = 32\nvalue = [25, 7]\nclass = CONFIRMED", fillcolor="#eca470"] ;
693 -> 699 ;
700 [label="koi_impact <= 0.018\ngini = 0.095\nsamples = 20\nvalue = [19, 1]\nclass = CONFIRMED", fillcolor="#e68843"] ;
699 -> 700 ;
701 [label="gini = 0.0\nsamples = 1\nvalue = [0, 1]\nclass = NOT CONFIRMED", fillcolor="#399de5"] ;
700 -> 701 ;
702 [label="gini = 0.0\nsamples = 19\nvalue = [19, 0]\nclass = CONFIRMED", fillcolor="#e58139"] ;
700 -> 702 ;
703 [label="koi_teq <= 895.0\ngini = 0.5\nsamples = 12\nvalue = [6, 6]\nclass = CONFIRMED", fillcolor="#ffffff"] ;
699 -> 703 ;
704 [label="gini = 0.0\nsamples = 5\nvalue = [0, 5]\nclass = NOT CONFIRMED", fillcolor="#399de5"] ;
703 -> 704 ;
705 [label="koi_impact <= 0.896\ngini = 0.245\nsamples = 7\nvalue = [6, 1]\nclass = CONFIRMED", fillcolor="#e9965a"] ;
703 -> 705 ;
706 [label="gini = 0.0\nsamples = 6\nvalue = [6, 0]\nclass = CONFIRMED", fillcolor="#e58139"] ;
705 -> 706 ;
707 [label="gini = 0.0\nsamples = 1\nvalue = [0, 1]\nclass = NOT CONFIRMED", fillcolor="#399de5"] ;
705 -> 707 ;
708 [label="koi_kepmag <= 12.556\ngini = 0.38\nsamples = 137\nvalue = [35, 102]\nclass = NOT CONFIRMED", fillcolor="#7dbfee"] ;
682 -> 708 ;
709 [label="gini = 0.0\nsamples = 5\nvalue = [5, 0]\nclass = CONFIRMED", fillcolor="#e58139"] ;
708 -> 709 ;
710 [label="koi_slogg_err2 <= -0.173\ngini = 0.351\nsamples = 132\nvalue = [30, 102]\nclass = NOT CONFIRMED", fillcolor="#73baed"] ;
708 -> 710 ;
711 [label="koi_insol_err1 <= 6.19\ngini = 0.421\nsamples = 83\nvalue = [25, 58]\nclass = NOT CONFIRMED", fillcolor="#8ec7f0"] ;
710 -> 711 ;
712 [label="gini = 0.0\nsamples = 3\nvalue = [3, 0]\nclass = CONFIRMED", fillcolor="#e58139"] ;
711 -> 712 ;
713 [label="koi_prad_err2 <= -0.155\ngini = 0.399\nsamples = 80\nvalue = [22, 58]\nclass = NOT CONFIRMED", fillcolor="#84c2ef"] ;
711 -> 713 ;
714 [label="koi_time0bk_err1 <= 0.007\ngini = 0.372\nsamples = 77\nvalue = [19, 58]\nclass = NOT CONFIRMED", fillcolor="#7abdee"] ;
713 -> 714 ;
715 [label="dec <= 51.4\ngini = 0.339\nsamples = 74\nvalue = [16, 58]\nclass = NOT CONFIRMED", fillcolor="#70b8ec"] ;
714 -> 715 ;
716 [label="koi_depth <= 393.1\ngini = 0.313\nsamples = 72\nvalue = [14, 58]\nclass = NOT CONFIRMED", fillcolor="#69b5eb"] ;
715 -> 716 ;
717 [label="koi_insol_err2 <= -12.465\ngini = 0.077\nsamples = 25\nvalue = [1, 24]\nclass = NOT CONFIRMED", fillcolor="#41a1e6"] ;
716 -> 717 ;
718 [label="gini = 0.0\nsamples = 22\nvalue = [0, 22]\nclass = NOT CONFIRMED", fillcolor="#399de5"] ;
717 -> 718 ;
719 [label="koi_time0bk_err1 <= 0.005\ngini = 0.444\nsamples = 3\nvalue = [1, 2]\nclass = NOT CONFIRMED", fillcolor="#9ccef2"] ;
717 -> 719 ;
720 [label="gini = 0.0\nsamples = 1\nvalue = [1, 0]\nclass = CONFIRMED", fillcolor="#e58139"] ;
719 -> 720 ;
721 [label="gini = 0.0\nsamples = 2\nvalue = [0, 2]\nclass = NOT CONFIRMED", fillcolor="#399de5"] ;
719 -> 721 ;
722 [label="koi_kepmag <= 14.458\ngini = 0.4\nsamples = 47\nvalue = [13, 34]\nclass = NOT CONFIRMED", fillcolor="#85c2ef"] ;
716 -> 722 ;
723 [label="koi_duration <= 7.855\ngini = 0.278\nsamples = 6\nvalue = [5, 1]\nclass = CONFIRMED", fillcolor="#ea9a61"] ;
722 -> 723 ;
724 [label="gini = 0.0\nsamples = 5\nvalue = [5, 0]\nclass = CONFIRMED", fillcolor="#e58139"] ;
723 -> 724 ;
725 [label="gini = 0.0\nsamples = 1\nvalue = [0, 1]\nclass = NOT CONFIRMED", fillcolor="#399de5"] ;
723 -> 725 ;
726 [label="koi_depth <= 439.9\ngini = 0.314\nsamples = 41\nvalue = [8, 33]\nclass = NOT CONFIRMED", fillcolor="#69b5eb"] ;
722 -> 726 ;
727 [label="koi_steff <= 5955.0\ngini = 0.375\nsamples = 4\nvalue = [3, 1]\nclass = CONFIRMED", fillcolor="#eeab7b"] ;
726 -> 727 ;
728 [label="gini = 0.0\nsamples = 1\nvalue = [0, 1]\nclass = NOT CONFIRMED", fillcolor="#399de5"] ;
727 -> 728 ;
729 [label="gini = 0.0\nsamples = 3\nvalue = [3, 0]\nclass = CONFIRMED", fillcolor="#e58139"] ;
727 -> 729 ;
730 [label="koi_srad_err2 <= -0.11\ngini = 0.234\nsamples = 37\nvalue = [5, 32]\nclass = NOT CONFIRMED", fillcolor="#58ace9"] ;
726 -> 730 ;
731 [label="koi_steff_err1 <= 160.5\ngini = 0.444\nsamples = 15\nvalue = [5, 10]\nclass = NOT CONFIRMED", fillcolor="#9ccef2"] ;
730 -> 731 ;
732 [label="gini = 0.0\nsamples = 3\nvalue = [3, 0]\nclass = CONFIRMED", fillcolor="#e58139"] ;
731 -> 732 ;
733 [label="koi_prad_err2 <= -0.335\ngini = 0.278\nsamples = 12\nvalue = [2, 10]\nclass = NOT CONFIRMED", fillcolor="#61b1ea"] ;
731 -> 733 ;
734 [label="gini = 0.0\nsamples = 9\nvalue = [0, 9]\nclass = NOT CONFIRMED", fillcolor="#399de5"] ;
733 -> 734 ;
735 [label="koi_period_err2 <= -0.0\ngini = 0.444\nsamples = 3\nvalue = [2, 1]\nclass = CONFIRMED", fillcolor="#f2c09c"] ;
733 -> 735 ;
736 [label="gini = 0.0\nsamples = 2\nvalue = [2, 0]\nclass = CONFIRMED", fillcolor="#e58139"] ;
735 -> 736 ;
737 [label="gini = 0.0\nsamples = 1\nvalue = [0, 1]\nclass = NOT CONFIRMED", fillcolor="#399de5"] ;
735 -> 737 ;
738 [label="gini = 0.0\nsamples = 22\nvalue = [0, 22]\nclass = NOT CONFIRMED", fillcolor="#399de5"] ;
730 -> 738 ;
739 [label="gini = 0.0\nsamples = 2\nvalue = [2, 0]\nclass = CONFIRMED", fillcolor="#e58139"] ;
715 -> 739 ;
740 [label="gini = 0.0\nsamples = 3\nvalue = [3, 0]\nclass = CONFIRMED", fillcolor="#e58139"] ;
714 -> 740 ;
741 [label="gini = 0.0\nsamples = 3\nvalue = [3, 0]\nclass = CONFIRMED", fillcolor="#e58139"] ;
713 -> 741 ;
742 [label="koi_prad_err2 <= -0.115\ngini = 0.183\nsamples = 49\nvalue = [5, 44]\nclass = NOT CONFIRMED", fillcolor="#50a8e8"] ;
710 -> 742 ;
743 [label="koi_duration <= 2.316\ngini = 0.153\nsamples = 48\nvalue = [4, 44]\nclass = NOT CONFIRMED", fillcolor="#4ba6e7"] ;
742 -> 743 ;
744 [label="gini = 0.0\nsamples = 1\nvalue = [1, 0]\nclass = CONFIRMED", fillcolor="#e58139"] ;
743 -> 744 ;
745 [label="koi_depth_err2 <= -71.6\ngini = 0.12\nsamples = 47\nvalue = [3, 44]\nclass = NOT CONFIRMED", fillcolor="#46a4e7"] ;
743 -> 745 ;
746 [label="koi_time0bk_err1 <= 0.005\ngini = 0.5\nsamples = 2\nvalue = [1, 1]\nclass = CONFIRMED", fillcolor="#ffffff"] ;
745 -> 746 ;
747 [label="gini = 0.0\nsamples = 1\nvalue = [1, 0]\nclass = CONFIRMED", fillcolor="#e58139"] ;
746 -> 747 ;
748 [label="gini = 0.0\nsamples = 1\nvalue = [0, 1]\nclass = NOT CONFIRMED", fillcolor="#399de5"] ;
746 -> 748 ;
749 [label="koi_slogg_err1 <= 0.027\ngini = 0.085\nsamples = 45\nvalue = [2, 43]\nclass = NOT CONFIRMED", fillcolor="#42a2e6"] ;
745 -> 749 ;
750 [label="koi_impact_err1 <= 0.248\ngini = 0.5\nsamples = 2\nvalue = [1, 1]\nclass = CONFIRMED", fillcolor="#ffffff"] ;
749 -> 750 ;
751 [label="gini = 0.0\nsamples = 1\nvalue = [1, 0]\nclass = CONFIRMED", fillcolor="#e58139"] ;
750 -> 751 ;
752 [label="gini = 0.0\nsamples = 1\nvalue = [0, 1]\nclass = NOT CONFIRMED", fillcolor="#399de5"] ;
750 -> 752 ;
753 [label="koi_prad_err1 <= 0.76\ngini = 0.045\nsamples = 43\nvalue = [1, 42]\nclass = NOT CONFIRMED", fillcolor="#3e9fe6"] ;
749 -> 753 ;
754 [label="gini = 0.0\nsamples = 39\nvalue = [0, 39]\nclass = NOT CONFIRMED", fillcolor="#399de5"] ;
753 -> 754 ;
755 [label="koi_srad <= 1.187\ngini = 0.375\nsamples = 4\nvalue = [1, 3]\nclass = NOT CONFIRMED", fillcolor="#7bbeee"] ;
753 -> 755 ;
756 [label="gini = 0.0\nsamples = 1\nvalue = [1, 0]\nclass = CONFIRMED", fillcolor="#e58139"] ;
755 -> 756 ;
757 [label="gini = 0.0\nsamples = 3\nvalue = [0, 3]\nclass = NOT CONFIRMED", fillcolor="#399de5"] ;
755 -> 757 ;
758 [label="gini = 0.0\nsamples = 1\nvalue = [1, 0]\nclass = CONFIRMED", fillcolor="#e58139"] ;
742 -> 758 ;
759 [label="koi_impact <= 0.931\ngini = 0.308\nsamples = 205\nvalue = [39, 166]\nclass = NOT CONFIRMED", fillcolor="#68b4eb"] ;
659 -> 759 ;
760 [label="koi_slogg_err1 <= 0.226\ngini = 0.269\nsamples = 194\nvalue = [31, 163]\nclass = NOT CONFIRMED", fillcolor="#5fb0ea"] ;
759 -> 760 ;
761 [label="koi_time0bk <= 357.862\ngini = 0.244\nsamples = 190\nvalue = [27, 163]\nclass = NOT CONFIRMED", fillcolor="#5aade9"] ;
760 -> 761 ;
762 [label="koi_kepmag <= 15.936\ngini = 0.219\nsamples = 184\nvalue = [23, 161]\nclass = NOT CONFIRMED", fillcolor="#55abe9"] ;
761 -> 762 ;
763 [label="koi_insol_err1 <= 22.39\ngini = 0.198\nsamples = 180\nvalue = [20, 160]\nclass = NOT CONFIRMED", fillcolor="#52a9e8"] ;
762 -> 763 ;
764 [label="gini = 0.0\nsamples = 45\nvalue = [0, 45]\nclass = NOT CONFIRMED", fillcolor="#399de5"] ;
763 -> 764 ;
765 [label="koi_prad <= 2.76\ngini = 0.252\nsamples = 135\nvalue = [20, 115]\nclass = NOT CONFIRMED", fillcolor="#5baeea"] ;
763 -> 765 ;
766 [label="koi_time0bk <= 135.081\ngini = 0.325\nsamples = 88\nvalue = [18, 70]\nclass = NOT CONFIRMED", fillcolor="#6cb6ec"] ;
765 -> 766 ;
767 [label="koi_slogg_err2 <= -0.403\ngini = 0.062\nsamples = 31\nvalue = [1, 30]\nclass = NOT CONFIRMED", fillcolor="#40a0e6"] ;
766 -> 767 ;
768 [label="gini = 0.0\nsamples = 1\nvalue = [1, 0]\nclass = CONFIRMED", fillcolor="#e58139"] ;
767 -> 768 ;
769 [label="gini = 0.0\nsamples = 30\nvalue = [0, 30]\nclass = NOT CONFIRMED", fillcolor="#399de5"] ;
767 -> 769 ;
770 [label="koi_prad <= 1.465\ngini = 0.419\nsamples = 57\nvalue = [17, 40]\nclass = NOT CONFIRMED", fillcolor="#8dc7f0"] ;
766 -> 770 ;
771 [label="gini = 0.0\nsamples = 3\nvalue = [3, 0]\nclass = CONFIRMED", fillcolor="#e58139"] ;
770 -> 771 ;
772 [label="koi_depth <= 788.85\ngini = 0.384\nsamples = 54\nvalue = [14, 40]\nclass = NOT CONFIRMED", fillcolor="#7ebfee"] ;
770 -> 772 ;
773 [label="koi_steff <= 6071.0\ngini = 0.266\nsamples = 38\nvalue = [6, 32]\nclass = NOT CONFIRMED", fillcolor="#5eafea"] ;
772 -> 773 ;
774 [label="koi_slogg <= 4.609\ngini = 0.133\nsamples = 28\nvalue = [2, 26]\nclass = NOT CONFIRMED", fillcolor="#48a5e7"] ;
773 -> 774 ;
775 [label="koi_srad <= 0.972\ngini = 0.071\nsamples = 27\nvalue = [1, 26]\nclass = NOT CONFIRMED", fillcolor="#41a1e6"] ;
774 -> 775 ;
776 [label="gini = 0.0\nsamples = 23\nvalue = [0, 23]\nclass = NOT CONFIRMED", fillcolor="#399de5"] ;
775 -> 776 ;
777 [label="koi_slogg_err1 <= 0.051\ngini = 0.375\nsamples = 4\nvalue = [1, 3]\nclass = NOT CONFIRMED", fillcolor="#7bbeee"] ;
775 -> 777 ;
778 [label="gini = 0.0\nsamples = 1\nvalue = [1, 0]\nclass = CONFIRMED", fillcolor="#e58139"] ;
777 -> 778 ;
779 [label="gini = 0.0\nsamples = 3\nvalue = [0, 3]\nclass = NOT CONFIRMED", fillcolor="#399de5"] ;
777 -> 779 ;
780 [label="gini = 0.0\nsamples = 1\nvalue = [1, 0]\nclass = CONFIRMED", fillcolor="#e58139"] ;
774 -> 780 ;
781 [label="koi_prad_err2 <= -0.32\ngini = 0.48\nsamples = 10\nvalue = [4, 6]\nclass = NOT CONFIRMED", fillcolor="#bddef6"] ;
773 -> 781 ;
782 [label="gini = 0.0\nsamples = 5\nvalue = [0, 5]\nclass = NOT CONFIRMED", fillcolor="#399de5"] ;
781 -> 782 ;
783 [label="koi_model_snr <= 51.15\ngini = 0.32\nsamples = 5\nvalue = [4, 1]\nclass = CONFIRMED", fillcolor="#eca06a"] ;
781 -> 783 ;
784 [label="gini = 0.0\nsamples = 4\nvalue = [4, 0]\nclass = CONFIRMED", fillcolor="#e58139"] ;
783 -> 784 ;
785 [label="gini = 0.0\nsamples = 1\nvalue = [0, 1]\nclass = NOT CONFIRMED", fillcolor="#399de5"] ;
783 -> 785 ;
786 [label="dec <= 48.225\ngini = 0.5\nsamples = 16\nvalue = [8, 8]\nclass = CONFIRMED", fillcolor="#ffffff"] ;
772 -> 786 ;
787 [label="koi_impact_err1 <= 0.248\ngini = 0.444\nsamples = 12\nvalue = [8, 4]\nclass = CONFIRMED", fillcolor="#f2c09c"] ;
786 -> 787 ;
788 [label="ra <= 296.137\ngini = 0.444\nsamples = 6\nvalue = [2, 4]\nclass = NOT CONFIRMED", fillcolor="#9ccef2"] ;
787 -> 788 ;
789 [label="gini = 0.0\nsamples = 4\nvalue = [0, 4]\nclass = NOT CONFIRMED", fillcolor="#399de5"] ;
788 -> 789 ;
790 [label="gini = 0.0\nsamples = 2\nvalue = [2, 0]\nclass = CONFIRMED", fillcolor="#e58139"] ;
788 -> 790 ;
791 [label="gini = 0.0\nsamples = 6\nvalue = [6, 0]\nclass = CONFIRMED", fillcolor="#e58139"] ;
787 -> 791 ;
792 [label="gini = 0.0\nsamples = 4\nvalue = [0, 4]\nclass = NOT CONFIRMED", fillcolor="#399de5"] ;
786 -> 792 ;
793 [label="koi_prad <= 3.545\ngini = 0.081\nsamples = 47\nvalue = [2, 45]\nclass = NOT CONFIRMED", fillcolor="#42a1e6"] ;
765 -> 793 ;
794 [label="gini = 0.0\nsamples = 37\nvalue = [0, 37]\nclass = NOT CONFIRMED", fillcolor="#399de5"] ;
793 -> 794 ;
795 [label="koi_impact_err2 <= -0.545\ngini = 0.32\nsamples = 10\nvalue = [2, 8]\nclass = NOT CONFIRMED", fillcolor="#6ab6ec"] ;
793 -> 795 ;
796 [label="koi_steff <= 6085.5\ngini = 0.444\nsamples = 3\nvalue = [2, 1]\nclass = CONFIRMED", fillcolor="#f2c09c"] ;
795 -> 796 ;
797 [label="gini = 0.0\nsamples = 2\nvalue = [2, 0]\nclass = CONFIRMED", fillcolor="#e58139"] ;
796 -> 797 ;
798 [label="gini = 0.0\nsamples = 1\nvalue = [0, 1]\nclass = NOT CONFIRMED", fillcolor="#399de5"] ;
796 -> 798 ;
799 [label="gini = 0.0\nsamples = 7\nvalue = [0, 7]\nclass = NOT CONFIRMED", fillcolor="#399de5"] ;
795 -> 799 ;
800 [label="koi_impact <= 0.247\ngini = 0.375\nsamples = 4\nvalue = [3, 1]\nclass = CONFIRMED", fillcolor="#eeab7b"] ;
762 -> 800 ;
801 [label="gini = 0.0\nsamples = 1\nvalue = [0, 1]\nclass = NOT CONFIRMED", fillcolor="#399de5"] ;
800 -> 801 ;
802 [label="gini = 0.0\nsamples = 3\nvalue = [3, 0]\nclass = CONFIRMED", fillcolor="#e58139"] ;
800 -> 802 ;
